-1.153280032911401312e-02 -4.459538694389499763e-02 5.900649512471586172e-02 -2.038053940068201841e-02
-5.639398723821798833e-03 -1.945787569852322832e-02 -2.573295613587369031e-03 2.823763943388393413e-02
1.152613803024939328e-02 1.778952135956624742e-02 2.213384254555874481e-02 -1.745567233140274052e-02
1.149336889141941431e-02 -4.916236857142673722e-02 -1.827923734975175213e-02 2.095840269155745117e-02
1.878293722933569929e-02 -2.288345256994592930e-02 -1.862784738706400184e-02 -2.264017682182390204e-02
-5.518133576258966305e-02 -2.329589741154328500e-02 -1.462727567277283432e-02 6.655627390090445954e-03
2.754128643944902047e-02 -1.715591061291789343e-02 1.896888367737590425e-02 1.388916185080446737e-02
1.157187043011594606e-02 -5.872564028163147418e-03 3.082569593928390431e-02 -4.405079712343074744e-02
-6.624687403214530104e-03 -1.409238752439052021e-02 -2.662123227967855971e-02 1.406824890661449376e-02
1.551915097525601375e-02 2.788516425059330006e-02 -2.341662256917939958e-02 4.190518780582210695e-03
2.938250963235523872e-02 3.350917248800958786e-02 -2.437531960488616145e-02 3.522671383267875211e-02
-1.425243517512073642e-02 2.930491693092182950e-02 -1.974809430796420351e-02 1.879493085390527077e-02
1.138739778236525987e-02 -8.685665619630173959e-03 2.129034157603093211e-02 7.274664022297840787e-03
2.316066813249418807e-02 3.228932824913655075e-02 4.061331577705786650e-02 1.341484788069550495e-02
-7.954607867601135723e-03 1.773001674434296002e-02 2.561887535373949878e-02 2.589827779262404359e-02
-2.495374224424731086e-02 9.336192555577211075e-03 1.869091776149645404e-02 -4.096102503066858039e-03
-1.632925299548482548e-02 -9.610578860368835033e-03 -1.106389786422358121e-02 6.946223011967699035e-02
2.551492556410184243e-02 -3.783353883620119845e-02 -2.112785022622423389e-02 4.530472724183228633e-02
-8.633784133653139153e-03 -2.279843854366301464e-02 1.625188171251284661e-02 2.879989449197560905e-02
1.312125664634920287e-02 1.952854494187928128e-02 -2.891715571534432538e-02 2.242541985183622508e-02
2.668340854029080736e-02 2.142980353180049327e-02 3.376317811566435095e-02 2.453835230662853098e-02
-2.465954378691774876e-02 -3.147138583566535652e-03 7.393362722612884354e-04 1.420924600145206940e-02
-1.324766672554528700e-02 1.570452787125864794e-02 3.808706472880989818e-02 4.893086009214184934e-02
-4.375102267938819900e-02 -1.098445178810410552e-02 1.904137703129487984e-03 -9.764824630804150307e-03
-8.677274985312849118e-03 -5.241576566969582962e-02 -6.658872614215486339e-03 -7.861619987539776979e-04
3.292660753465903589e-02 -4.568701554608977505e-02 5.416452715744784173e-03 -3.639612231419311200e-02
-8.222941569053622904e-03 4.974314201372737748e-02 8.178961905625862713e-03 -3.606537744022814823e-02
-3.094342543318159139e-02 9.347633811229702494e-03 -3.902081206132569646e-02 5.033865035484683115e-02
-2.225669052921939658e-02 8.811891966649474522e-04 2.362972806175114848e-02 2.237592994044203254e-02
2.089276032842950562e-02 -2.120289002394230024e-05 -8.592041518337999173e-03 3.213895928562739840e-02
3.625096665603460416e-02 -3.060721870603010791e-02 2.508498574379791624e-02 5.131708631965968548e-02
1.316119349743272854e-02 -1.428268637934809043e-02 3.510990188727486404e-04 2.302111521123847634e-02
1.125881250052695494e-02 4.926608603529843144e-03 5.823661638182375810e-02 3.541885322118024093e-02
-3.416563284127095701e-02 -5.523282471683443190e-02 -1.067038395355397566e-02 2.695559765212073716e-02
5.879879940380280945e-02 -4.105637345856421282e-03 5.478376018538900528e-03 -8.297238294722827923e-02
2.701198772539575854e-03 -1.383484029605188889e-02 -1.557552632351138708e-02 2.372251613236785531e-02
-2.930540894492434799e-04 -4.278150357584094288e-02 -3.210820812709706037e-03 -1.730292685583718296e-03
-2.961050069663588059e-03 -1.980439044207649851e-02 1.390181493638945921e-02 2.925510080363947704e-02
-2.668253595520900245e-02 -4.773926653512933910e-02 4.671477696011858138e-02 -1.221918256948396897e-02
4.831214275686167986e-02 2.702583219807425802e-02 -3.162260111748711744e-02 -4.796533174187556786e-02
1.663720655329813808e-02 -5.489777528099938630e-02 1.476350441354499533e-02 5.455503398166291346e-02
7.551415391471378441e-03 1.935608690886944780e-03 3.401201001462621915e-02 9.171475121105941361e-03
-2.044701327220983106e-02 2.448563571861679319e-02 2.448713232695105130e-02 2.478578300096093839e-02
9.319672014962457687e-03 2.670525667175947110e-02 3.146453007295058751e-02 -2.087116126766502822e-02
1.776760630370846986e-02 5.438990545176401042e-02 -5.329691780191241806e-04 4.642983929623338557e-02
3.722920792283025693e-02 -2.103428038200594666e-02 3.279616408931000648e-02 4.342857781364042880e-02
-2.151550593788470120e-02 -1.631238190285218617e-02 4.147428648719263256e-02 2.859434398239662709e-02
-1.857443466611304137e-03 -1.970842945107732433e-02 2.717674080007427898e-02 -2.046521145910282918e-02
2.423905519956639706e-02 7.020286352457287549e-02 1.853463985827889099e-02 -2.492092794222892579e-02
3.918135631742236669e-02 -1.007567141087645224e-02 -7.683366975680808175e-02 1.092846548546010620e-02
-4.310388511821385688e-02 5.722223018076300245e-03 2.087023707551226293e-03 3.639067763477369516e-02
-1.234787238960225082e-02 -5.354772878000499392e-03 4.291856954281066117e-02 4.651324217107002251e-02
1.918485639667199139e-03 1.666677800229513298e-02 -3.396385982973908896e-02 2.933596263235950519e-02
2.432469509595510532e-02 1.390602280178092690e-02 -1.524652230074017775e-02 2.438974988242162151e-03
2.722105520335485127e-02 -1.730651890292921394e-02 -2.485508817823064293e-02 -1.284023295847113756e-02
3.129734393744844356e-02 7.548532210155512075e-03 -2.357382667933689141e-02 1.656347000491087407e-02
2.895241513876965420e-02 3.548475986780304237e-02 5.924325165103600313e-03 1.096737584410092774e-02
-1.059006458781890266e-02 9.101896071118583190e-03 8.907005761423768611e-03 -1.221029162441602395e-02
-2.355058691851479730e-02 -1.949426122283490562e-02 5.611260077632857640e-02 -3.847470277103252900e-02
-3.045282428478080991e-02 -2.304157963236365750e-02 -2.762405271308928864e-02 2.699886068607768724e-02
-1.076563598352762822e-02 -2.084947564590738933e-02 -6.658536353009391305e-03 2.519666150951387507e-03
-2.726675898268697551e-02 -2.644869003847940409e-02 1.862994701625202143e-02 -2.898689137252066349e-03
-9.260980275155400454e-03 -7.053100673460991482e-03 -1.085515296286188730e-02 -3.069310623819090922e-02
1.238425141682654093e-02 3.670247291349024860e-02 5.012224088301107938e-02 2.241082709743023871e-02
-4.267326039014111838e-02 -3.443340692157558077e-04 -1.288349617742200323e-03 -1.729609195547472536e-03
1.354759412881505372e-02 -1.078809518098044519e-02 3.878656112938332762e-02 -3.291863611815013663e-02
-1.483174823836364703e-02 3.799554652215889755e-02 7.586822571337767038e-03 3.378812187128518718e-02
-1.671511406706245942e-02 2.782629201399217100e-02 -1.713199995610634879e-02 3.687451914214934234e-02
4.922514158012474689e-02 -4.231245031860205591e-02 -1.843361310424105823e-02 -1.794922958778654570e-02
-3.418816302275377167e-02 -2.075401056254830290e-02 -1.500878671847638264e-03 1.600448042103510063e-02
-3.853953817013063693e-02 2.356210496504712853e-03 1.673748380495310162e-02 -3.096983303357717619e-03
-4.953990770069425370e-02 -3.446523683690692896e-02 6.799807393213287698e-02 -4.245552923545051899e-02
5.575086985127206129e-02 4.243170506826889760e-02 1.604910088154345646e-02 3.967806252241759535e-02
-3.581629586892402101e-02 -1.351375115822822312e-02 -4.757377438112859319e-02 1.146331334460450220e-02
4.005136341859798915e-02 3.209894248313872878e-02 -5.594523855327073608e-03 1.522051228146115327e-02
1.701296465051476900e-02 7.051386632540200539e-03 -4.749037780353374677e-02 2.496557937211239808e-02
-2.330722834594171899e-02 2.060948124514183633e-02 9.639412736772457260e-03 -1.594107189113939255e-02
-4.094112645172730790e-03 -2.294000183474235403e-03 -8.313976549766774471e-03 1.027218342418439317e-02
4.308234876835706668e-03 2.084566234160888532e-03 2.718959498430049623e-02 2.185616486598591576e-02
-2.273533203365694921e-02 3.681564933280528917e-02 -1.849713705401227759e-02 -3.855931840822719725e-02
2.685152084964692945e-02 -3.772392212976115322e-02 3.597383947690858952e-02 -8.256899847510416716e-04
3.339477604684298190e-02 2.178461590582285792e-02 6.958950901194232985e-02 3.175612243672789920e-04
-2.733614276868378754e-02 -2.935399786716432879e-03 5.412762847887370166e-02 -3.839136398043093562e-02
-3.206706998977578577e-02 -1.724267523311843325e-02 4.969110230820799647e-03 -3.946953019886812603e-02
4.287549565190161907e-03 1.454290092471067922e-03 1.231095705169389437e-03 -3.482255688058610854e-02
-7.233069819062694578e-04 -3.231080434914702926e-02 4.943022757036175802e-02 -1.789718216181021906e-02
-1.799507363747731800e-04 -3.473727565602166469e-03 -1.665505652412938714e-02 -1.598325411750033467e-02
2.889231496485256470e-02 4.889454841584916361e-02 2.678448306312369506e-02 -1.636767944981351239e-02
-3.759877117278490055e-02 -2.867366499854243772e-02 -3.666678438685207122e-03 3.255831765400719890e-02
-2.107450320588786282e-03 -8.585273612532459686e-03 -1.190416140688002264e-02 -5.270083200176820491e-03
-2.771023957552467502e-03 -1.243117140086092212e-02 2.025927050720690778e-02 5.373399752917853989e-03
4.846996590297013643e-03 4.730646242101450155e-02 -3.198892948704620820e-02 3.540813726638240150e-02
-1.535936598087982684e-02 1.363498668765833130e-02 2.387586996636020115e-02 1.896241215985180334e-02
2.527955018707471815e-02 -1.475182091094870938e-02 -1.657138842510088661e-03 1.157471229599864489e-02
-2.190242801046630300e-03 -5.837021111160347470e-02 1.118303495887412215e-02 1.079423309006197207e-02
1.437138561287196973e-03 -1.565267500222888505e-02 -3.109707032125867687e-02 1.455131144945100846e-02
-1.904414381902599582e-02 5.170221882533492658e-02 1.051035861503157171e-02 -5.467214489664101555e-03
1.041803997050127356e-03 -1.986513805577436870e-02 -2.014905821769263569e-02 -1.326044589775662343e-02
1.195700872697868372e-02 -1.289352750083235313e-02 2.785133943114461580e-02 -4.353649448661790072e-02
-6.229255819292974124e-03 -1.081694182989066146e-02 1.129729869765998609e-02 3.281894726634321247e-02
3.349945812019864549e-02 -2.802627037259216788e-02 1.780670962510335362e-03 1.272458284776155357e-02
1.919422061803812210e-02 3.708651490097773784e-02 9.122432659385275311e-03 -2.146405767477742657e-02
-8.340104116318056734e-06 -1.883045242865601402e-03 2.262819114583660557e-02 8.722366422878611095e-03
-5.416964212261036679e-03 1.460485911997723256e-02 -8.517082293495426351e-03 -1.022797732419170741e-02
4.885663721616986116e-02 -8.597781658012485298e-03 3.217386100704810320e-02 -4.374561337596725996e-02
7.548112211707290464e-02 2.692737993892208026e-02 7.381529631441424060e-04 2.119043926942232661e-02
-3.433593272324499124e-02 -3.777168349346449877e-02 -1.733850926424936739e-02 1.679531734031624451e-02
2.932188991415127927e-02 3.410123108121311530e-02 -2.076119275050729643e-02 -1.043388467211811381e-02
3.520166880350748817e-02 -1.982837211572693881e-02 9.776339686172308419e-03 2.370568632162562209e-02
1.408217609644861652e-02 1.587896331877435702e-02 2.282121392442057126e-02 -1.988441448320285923e-02
5.722428049582610476e-03 -2.046471335316546458e-02 3.146019138357787626e-02 5.581883067802355380e-02
-1.504214235513215425e-02 -1.656219188808593853e-02 5.859534614089684061e-03 -9.024657607728052422e-02
7.098667797346836471e-03 -2.228512804382251980e-02 2.394970096392745953e-02 1.073774603159529696e-02
2.592568123689400691e-02 -3.985091753494065386e-02 8.042908712645815278e-03 -4.222398091808583775e-03
-6.221050307194182089e-03 5.028091241268899114e-03 -4.926492741963860167e-02 -2.050200709443040711e-02
5.520957344963823947e-03 3.571136345547250290e-02 -1.618579170849529601e-03 6.220450687969308889e-03
2.732794998875423889e-02 1.829214869168033220e-02 2.368225148679342640e-02 3.290612620249579179e-02
-3.455627164357180647e-02 3.379888324231774405e-02 3.013122344792589641e-02 9.691336915512157452e-03
2.033939629664561349e-02 -1.091296562905928920e-02 2.154805156779363018e-02 -2.880026410631353513e-03
-8.520240436237761297e-03 2.481772331448229771e-02 -1.054121652021760419e-02 4.878996136539255624e-02
2.272547715915987365e-02 -5.579244362831140003e-02 7.994195141127917459e-03 2.725765715259479208e-02
2.309312649365505982e-02 -5.821740893475394092e-03 4.299575805756530866e-02 -1.812964530560114140e-02
3.269078650118366347e-02 3.469049623975543895e-02 9.913255331000724382e-03 -4.385194191684499421e-02
3.766203875124361777e-02 1.387304410570915948e-02 -2.981537558597404172e-02 -1.148272160572226357e-02
-1.495221825927908754e-02 -3.943067832535247091e-02 1.496792529113737981e-02 -3.749817574715289155e-03
-5.114863293062927099e-03 3.105381860437906108e-02 -2.582208204111274483e-02 -2.103415400395834689e-02
-3.794073261870411357e-02 -9.782840143734771593e-03 -1.785588558193004077e-02 1.269678184456132786e-02
-2.237116635097281554e-03 1.078604153685258681e-03 8.057652814209110073e-03 -3.761864089097514269e-02
-1.058911326266583249e-02 -4.441435318855143505e-02 3.937564773151255165e-02 6.931770066876763101e-03
3.504051883375436383e-02 -1.152619368522958369e-02 7.125498842583898561e-03 2.205851583949419194e-03
-4.605547224547170554e-02 2.195093344843873293e-02 -1.812823180734576128e-02 -5.004566167285319500e-03
9.199687500732866424e-03 -1.304178815736145407e-02 -3.834380771845015412e-02 -6.284792994111610505e-04
-1.953407714467918221e-02 1.058782739914991555e-02 -1.054651843545029340e-02 -1.999274131660210355e-02
-1.823519666872897016e-02 1.219899176734367229e-02 -3.443883680673537947e-03 5.851519028143607574e-03
6.282681886780890068e-02 -2.880723944226658631e-02 5.425124383996348526e-03 -4.686089365420518377e-02
-1.461639364585948578e-02 -4.907228752766228802e-02 3.372208295837606385e-03 -2.488331528873531651e-02
-8.816173198967108479e-03 3.101580396249900996e-03 -3.838710629470089980e-02 -7.193073390058771222e-03
1.616963964170400198e-02 -7.168538120931689482e-03 -1.435554929195747946e-02 1.828603252231181080e-03
-2.842774720781955557e-03 -2.595735145589137677e-02 -2.129931125586547250e-02 2.246719814779424979e-02
-6.611518602624640549e-03 -4.981989000439997033e-03 1.564750780368643138e-02 -4.764824702998454037e-02
4.223050159874598697e-02 2.540599215324565105e-02 -3.168697355104586888e-02 2.055763047249605999e-02
-3.079525713429793338e-02 -2.722056355146050544e-02 5.337226919592760049e-03 2.644298543646786404e-02
-4.100075792310128864e-02 1.202848622733419283e-02 4.254790720137831966e-02 -2.811499451122552451e-02
2.506402202693433848e-02 -4.399014732031695379e-02 -2.837105112185048239e-02 -4.638690422642842426e-02
-2.996209649575412668e-03 -2.541082572544862972e-02 -2.897931514702283343e-02 3.296719458868538344e-02
-3.131021264919207209e-02 1.998243650372585542e-02 -3.305140423257314081e-02 -1.581392967451329332e-02
2.676304074400896738e-02 -7.040170123656091551e-03 5.168570485959104489e-03 3.293552891209826361e-02
1.509385288755570390e-02 5.617265602815496063e-03 2.621891904271297577e-02 -5.527053254574076230e-02
-2.872909141923646673e-02 -2.012796757605055803e-02 1.343393567363495265e-02 -2.634661063961956772e-03
5.623110262460585818e-02 -7.492965760893663917e-03 -2.387623589517231387e-02 2.412948605211481887e-03
-2.388690501458849008e-02 5.022718358204029260e-02 1.068017001355161220e-02 -2.079863195884485219e-02
-7.495775689317879346e-03 1.521650326021840166e-02 6.072980623052397393e-03 -1.481879628855750121e-02
4.550090420768097138e-02 1.759738774222686236e-02 -1.733091678568275326e-02 4.248032367836814503e-03
3.881207555402280390e-03 7.648187161955530451e-03 9.413458736908351596e-03 3.332826084914748688e-02
8.239430884474074554e-03 -3.993651966966019901e-02 2.671588036134886837e-02 -2.191704540447416902e-02
2.279732989021377929e-02 3.834651384324956613e-02 -4.534454881517707009e-02 3.410640578729777495e-02
-1.042894490486141051e-02 -3.991122632199869263e-02 1.537273739898489290e-02 7.805648546546838269e-03
2.403140151615765739e-03 -3.298777612617298819e-04 -1.965000112185251793e-02 -2.900030551416874630e-02
-4.216836364851619251e-02 -1.559721572532939138e-02 -3.200381918192402725e-02 -2.744684222598029258e-02
2.313402889316750963e-02 1.937034272140916724e-02 -4.666763685599892297e-02 -1.148360996384167367e-02
5.830609917724653701e-03 -2.271115604504685831e-02 -5.031293737034914920e-03 -2.448127404763094511e-02
-3.472870860872742747e-03 -9.249133723261788662e-03 -4.375413305096346496e-03 3.309120988170770328e-02
3.694185569610182376e-03 6.119311714171209171e-02 -2.207008210199011208e-02 1.086032423446438994e-02
1.314469967846918635e-02 6.000073545721218947e-03 -3.371202647191315349e-02 1.924608897823669798e-02
-4.058735762715788564e-02 5.546227610028397342e-02 -3.820202154293821095e-02 7.984941873244453051e-03
3.026268792271248533e-03 -4.778767502372961717e-02 1.407051949353959296e-02 7.792396675273660644e-02
3.343821192048675867e-02 -4.103963346038917021e-02 -3.279520229597074343e-02 -3.019123700712602817e-02
6.703562104481783357e-02 2.291645742460518120e-03 -2.877146228998981106e-02 1.938858566441808637e-02
-2.834775425834162518e-02 5.418960427845484311e-03 -2.943023966433468835e-02 2.784629275930391654e-03
-2.373640337070360290e-02 -7.608699526151483511e-03 6.566009018076656746e-03 1.270673737245366260e-03
4.851820539054611456e-03 1.499256623980071111e-02 1.329517658879907603e-02 3.589295777221067352e-02
-1.514954097231779352e-02 1.847747558226001292e-03 -1.779613101774157533e-02 -1.048286863274997980e-03
2.184209242777357743e-02 -1.092215953466442457e-02 4.661497640456245019e-03 -2.304925012707214477e-02
7.906571940285210195e-03 3.722820350203069617e-02 -1.012111675842540352e-02 2.336350407015983649e-02
2.120900154654073097e-02 5.315716238911995066e-03 5.449411441564426008e-03 -5.584778471945069100e-02
-1.195240990631207811e-02 -5.242985773814298062e-02 -2.455118547202881502e-02 4.500461885053490263e-02
3.254706028536041851e-02 5.041111841768163709e-02 -1.070629915594353138e-02 2.339873692192243754e-02
2.599976878678994952e-03 4.644714712027054812e-03 1.373743588441506472e-02 -4.718468594412931170e-03
-1.295954899595634993e-02 -3.915887164790120625e-03 1.349541542071727718e-02 1.814703822073181205e-02
1.219995438401141885e-02 -1.319124160405753948e-02 3.258906282267605425e-02 -7.415120770967756521e-03
-1.161041945957327903e-02 -4.255461368127210625e-02 -4.332112666671688456e-02 -4.908432607919954033e-02
-9.229812215233265671e-03 -2.335432667411875898e-02 4.800309706296825712e-03 2.198393968679107635e-02
-2.753230523180024217e-02 -3.607666046307445029e-02 -6.150508825967914567e-02 7.605464568895196724e-03
-3.953609584758170127e-03 1.548847834147738800e-02 4.532293039840457061e-03 -1.986558351857914059e-02
3.383617838221056589e-03 3.168826760418777533e-02 6.896060245844240662e-04 -5.835592450059965547e-03
-7.211554640231132227e-03 6.807206651222304922e-03 1.497755963230428845e-02 3.033269679661938431e-02
1.005331474831455858e-02 -7.322310688658232279e-03 5.108566724384089319e-02 -2.208543141212658892e-02
1.624371851639507989e-04 2.130548630398769114e-02 6.113864937976138704e-03 1.097701181852239576e-02
1.440025390138454341e-02 -2.348348988003536031e-02 -2.268569425350387084e-03 3.304514502234937035e-02
4.788055778437447230e-02 3.132251670389500642e-02 6.352472613146998084e-03 6.290734549128919502e-03
2.594734609527027738e-02 2.343482008033762748e-02 1.315530176200412245e-02 8.786415750608439880e-04
3.240824572191404462e-02 -1.492576635654493944e-02 3.716504775243283792e-02 2.163756011529860586e-03
-6.935041377920325538e-03 -3.769469766210907513e-02 2.380961961712953559e-02 -1.525357615014101380e-02
1.455536486640082901e-02 -2.453302723253250259e-02 -2.633780734623342688e-03 4.816909886779994349e-02
-2.654119944228358272e-02 5.041306525756641260e-02 -2.949938860156580203e-02 -3.165553204097651396e-02
-1.636348230481998733e-02 4.279971317831163767e-03 -2.478814068067177606e-02 -1.936354284688280789e-02
-2.078415965541198507e-02 2.638278206690275809e-02 -1.487055685933252533e-02 -2.370883910025954611e-02
-2.941505255035816238e-02 -1.594457496441632760e-02 2.077855799950868547e-03 -5.215147914747183221e-03
1.535492455710008898e-02 -1.385552359555232600e-02 1.959711918038831852e-02 4.362872190466163258e-02
-6.072195265043731083e-02 6.634373983927942427e-03 -1.475154332456229435e-02 -3.551447488508817363e-02
8.454792312357421735e-02 -3.581701988373203749e-02 1.403697297180873590e-02 -3.801801114862807252e-02
-1.485713709693304609e-02 5.522034634506658470e-03 -3.560532937241657481e-02 -5.033855296314875688e-02
2.096042336775220602e-02 3.533435154207566209e-02 1.951794562432776318e-03 1.057718524522570196e-02
-2.767923657883647817e-02 -7.322611294453182373e-02 -2.614279159409302767e-03 1.023764589054644396e-02
4.780616062699247215e-02 -2.305860815639982145e-02 -3.388618323300623264e-02 -2.675417030013648584e-02
1.470718086759082929e-02 -7.880578271036269011e-03 -5.716464572028224361e-03 2.666164305330446030e-02
-4.997107001509386130e-03 4.686035468669337567e-03 -2.064391880368326646e-02 -2.893853401095527328e-02
-7.044372026523264838e-04 1.079100398279117697e-02 7.147999106906596789e-02 -3.896984254264281976e-04
-4.965393188518660295e-02 1.774974702165689824e-02 -9.522605848595230502e-03 2.057236151073177713e-02
-6.041482998243715916e-03 -3.101336978231367808e-02 1.603032935830656135e-03 5.351557896767536460e-02
-1.533051055476721165e-02 2.754523752985683915e-02 -1.857231294223528340e-02 5.039035378285143529e-02
-1.563638490894451311e-02 2.764161688038675388e-02 -3.133149416490388188e-03 -6.048256485072405972e-03
-2.693327136568307231e-02 3.364580825218185800e-02 1.518305919817789298e-02 8.051851160958451922e-03
-1.907507285731934593e-02 -9.318538865579081842e-03 7.527780097082054089e-02 4.113817294261980922e-02
-3.724450207336343216e-02 -7.068691673875629120e-03 1.270446900481175638e-02 -3.084447732855334287e-03
-4.778186289845792354e-04 1.054790769740697638e-02 -1.549572274567550395e-02 -1.992739436642209858e-02
3.570543579533158596e-02 1.121947629263573935e-02 3.654167665965013523e-02 5.231772100502258410e-03
-4.345000120995203691e-02 4.327771163856451719e-02 -5.449722038848215169e-03 -1.635437692840044366e-02
4.977842246625548833e-02 2.492014941882568502e-02 7.621844651944461972e-03 -7.906838137089164387e-02
2.354844167382137005e-02 -2.148044559023333869e-02 1.189867372587239888e-02 -4.080261609364248254e-02
1.248262053150845513e-02 -2.316581510800981222e-02 -3.753670997599626441e-02 2.012523849563107963e-04
-3.655965913832903615e-03 -2.781365200354492945e-02 2.929903035102099807e-03 -5.481991529018999387e-02
4.911868912108028479e-02 -3.305109657182070566e-03 6.227240950705166533e-02 9.536455726887329079e-03
-6.705723507716113314e-03 3.621054920444400499e-02 -1.156883997855501830e-03 6.615931930680787887e-03
4.452214398546982393e-02 2.784987005397442095e-02 1.961530413046546489e-02 -3.126516557879359393e-02
5.047553077653301606e-02 -1.940833177983904145e-02 1.220512674501429869e-02 -2.997322617953883557e-03
-1.768630700627606134e-02 5.450239863871909722e-03 1.065721799143441555e-02 -2.266593006153646422e-02
-1.748726688632391835e-02 -3.654292942872680063e-03 -5.564467106499901283e-02 7.107290322192911722e-03
1.019769615800096910e-02 -1.567675629693060513e-02 -2.290944170500314181e-02 3.251483273301118693e-02
-8.145389581660668690e-03 -9.088453685323611905e-03 -6.064817062237221057e-02 -3.260925967227529948e-02
2.005436509760952918e-02 1.834158231403554967e-02 -4.078151360173400825e-02 -3.208300433625873443e-02
2.931719298283987519e-03 3.742045576087953216e-03 -5.663489197691229382e-02 1.015030634008121449e-02
9.202416509775259920e-03 -9.653073797632871073e-03 1.154270858392978522e-02 3.269507055655068717e-02
2.107777466447874597e-03 -1.215325971565895703e-02 -2.203979302558951164e-02 -1.633679186774263797e-02
4.711752004151758405e-02 -2.451208800862761036e-02 1.788661393045985412e-02 -1.688099500876355519e-02
1.409048240258416662e-03 9.822385627373081754e-03 9.717387902429987581e-03 1.491437708757533537e-03
4.228742271171793965e-03 5.223249314353150402e-03 2.096435101307930586e-03 3.348858595680540614e-03
2.481961307937417295e-03 3.766286276599963706e-02 -2.036056515361261976e-02 1.315834770278530470e-02
2.151460962742388419e-02 -2.289316230462763377e-02 -3.211142592064340773e-02 2.013666317821952850e-02
-3.879708944466589426e-02 -5.288398839946394786e-02 2.458215899891275785e-02 -8.652926120577095204e-03
3.820965414372332059e-02 1.418215837329621669e-03 -2.813697666349988802e-02 -4.804944017531746710e-05
1.508465246369528230e-02 1.209970292610100182e-02 2.055844284433713462e-02 1.873345513429039086e-02
-3.326701508102833382e-02 -3.790285028618290038e-03 1.180462568419428891e-02 4.966970424536376605e-02
2.812701947016899712e-03 -1.223807601733052988e-02 -5.224757941864784094e-02 2.214565046519236750e-03
3.900897017953660478e-02 -1.356136652498972882e-02 -2.358697397520543443e-02 8.739590271609660316e-03
6.205799003245978523e-02 -1.438590468303338477e-02 1.116640401778234114e-02 5.059592586352760227e-05
-7.255237464912040824e-04 7.230849102780181415e-04 -1.930756193261216544e-02 -1.733057812726974262e-02
2.982002961269023672e-02 6.751046155649560211e-03 -4.868531197534413033e-03 1.671470057498130810e-02
-1.444085362818873196e-02 1.942938474965677509e-02 2.328611695670453410e-02 1.297776545451593232e-02
-5.776554861554727277e-02 3.331855960295936753e-02 1.366691418897274940e-02 8.662766138915201086e-03
-2.137339795450766272e-02 -1.024767512119497716e-02 -9.316334526724565773e-03 -9.850861065424636881e-03
-2.822557734661971379e-02 2.162615614175831744e-02 3.129680445500004644e-03 2.977798283641174687e-02
-5.916039087031110290e-03 4.105456103373945204e-02 2.337821287568558545e-02 3.867764408194226261e-02
1.306494437102810428e-02 -2.087583712588039417e-02 3.579440304025812911e-03 1.110828222637892833e-02
-4.683279635353817562e-03 1.636496026074701557e-02 1.093705747035527386e-02 7.868345542030877326e-02
2.922563299729379060e-02 1.845631517692073245e-02 -2.106455727337121220e-02 -5.116603193117700427e-02
-1.414022012229617514e-02 1.676791365277890966e-02 2.336577363190106560e-02 2.448923898565573930e-03
-2.039489911007150158e-02 -3.298363422375496373e-02 6.681966333408346191e-03 -4.871809486656531601e-02
-1.753029287987684787e-02 3.827092398527353299e-03 -3.560606425881591985e-02 3.672276608251206359e-02
-4.209236176562953374e-03 3.404630285964191632e-03 3.167818488333938587e-02 3.500462516532576451e-02
6.586907584314079245e-02 -3.905987134865718940e-02 3.919565547799556959e-02 3.640085455135786546e-02
-2.711711146970200575e-02 -4.753827213892171388e-02 -4.186821227378596799e-02 6.661712507021684548e-02
-2.115423433457008090e-02 2.861696167233943044e-02 -4.623054690511448073e-03 6.853994441686093488e-03
1.064802993651889178e-02 2.640716894176485183e-02 3.364982916117082584e-02 1.070355126900154712e-03
2.425963061940281454e-02 -2.006289351027164616e-02 2.190750663251583852e-02 5.325523840266504355e-02
-2.053991622307983073e-02 5.024829550748578094e-02 -3.024603256323494388e-02 -7.771604181062395644e-03
-6.014448730463740206e-02 2.661013607514115323e-02 -2.219055229845277172e-02 2.092938358634870155e-02
-3.731885588232438516e-02 -3.569909148314877323e-02 -1.405388957801582440e-02 1.435224198700594395e-02
2.310284689739747210e-02 -2.140882994471357201e-02 1.555454943197433736e-02 2.908613953672269103e-02
3.872161215516400998e-03 3.696036652876049863e-03 2.012990065731223507e-02 5.082769346145689371e-03
1.096416748884682796e-02 -1.538471303652594845e-03 -7.704982499726606426e-03 2.723976829678564221e-02
8.150976157916727319e-03 -5.560325975603349485e-02 -4.832658107558615579e-02 4.032091036373738023e-03
6.045853695486585327e-03 1.067446483027961919e-02 -2.282019500836566812e-03 8.142621452467319748e-03
-1.976733825467963737e-02 -4.854830423606165679e-02 -2.730957171412176122e-03 -8.809584757672520722e-03
-7.370551708661375601e-03 -1.851475008786518384e-02 -5.150100795322970493e-02 6.075708665626890388e-03
-1.199149735899697304e-02 -1.153984449934901228e-02 -5.310345223627024186e-02 -7.602660655401443854e-03
2.446004218175318323e-02 1.726134345135316855e-02 3.268802886361492355e-02 -2.549063014547871329e-04
1.275846676359181607e-02 -5.734154348087613408e-03 3.008457514113256973e-02 -2.222929634217499922e-02
-2.829852248480209387e-02 -7.071713024491739670e-03 -2.214239207401766385e-02 -1.480410553924695408e-02
-6.508761065029563392e-03 -3.644821659930988500e-02 -9.149981679925742184e-03 2.020466660512471729e-02
-1.581549006949137942e-02 -3.770043238502176347e-02 -3.307690878660728834e-02 -9.977192928692152005e-03
-2.451037051127892899e-02 3.346686504384004807e-02 1.211220614258301867e-02 8.429291273706935803e-03
-2.762819361772781562e-02 -4.418076223316167589e-02 -1.659892954641205287e-02 -4.665520661908336558e-03
3.781007476553626540e-02 -2.361383272590058396e-02 2.268317229537264099e-02 -2.544250248654756838e-02
7.048957866053627043e-03 -8.886935964436642847e-04 1.314262681700978722e-02 1.600148123016350427e-02
-1.096973239367912516e-02 -1.484612581342740698e-02 7.754067283332319099e-04 2.275069388419558719e-02
-2.326263390894323449e-02 1.638832815188257311e-02 2.424547552772754813e-02 -1.158345282453162629e-02
2.578665183640013736e-02 3.586966841744126944e-02 -1.491796734612469560e-02 -1.186717928841955240e-02
1.114756711903003121e-02 -3.087977638414619516e-02 1.456839434249182757e-03 5.973271024914697741e-04
1.079210247165096484e-03 2.684081651301674712e-02 -1.245179539090135977e-02 2.036969820249897450e-02
-2.172495207764318231e-02 -3.325131837886734221e-02 4.649253906351304144e-02 -7.156084813469640662e-03
-1.773651857743122756e-02 1.877136188240165898e-02 -4.316540786043160383e-02 -5.600307121601972096e-03
4.261309947216367772e-02 1.517216172740136655e-02 -1.868743957937924263e-02 -1.504399451583550429e-02
5.333791968631981968e-03 2.732088954053107054e-03 9.131970039233779091e-03 1.207207335785675899e-02
-1.089055450925636992e-02 6.197598418455810970e-02 6.789196218603870195e-04 3.958893128726018174e-02
-1.442691235010769117e-02 4.032572816490415796e-02 -1.885734777830623890e-02 3.571417387514944954e-03
-3.267752916284373532e-02 3.769471197013363889e-04 -1.195157618189559602e-02 4.658010928913907528e-02
8.356312581957733160e-03 3.507876600265347027e-03 -2.137717531063436371e-02 3.923506335549911683e-02
-6.316928050372395791e-03 -6.747425159619599259e-03 -2.300306197723232544e-03 4.978610941270036200e-02
4.160177234555291481e-02 3.107249564448007553e-02 1.055521464786283482e-03 2.988651052028193367e-02
-3.397489634858965463e-02 8.698415616505299208e-03 4.154436549517474993e-03 5.736881540954236365e-03
-1.968923107672254300e-02 -6.958544440468046252e-04 4.074374621122254375e-02 1.711002143078763343e-03
-1.328868463029262738e-02 1.142128180154991166e-02 3.284889541409255487e-02 -1.184699853331763926e-02
-2.367327042381908980e-03 1.697395079012717356e-02 6.621116877588007063e-04 -1.554373435114264667e-03
-4.458351864002933068e-02 -2.387629601605423084e-03 6.110514013105960811e-03 6.056264780014605081e-02
-7.042532734100022396e-02 -1.208010898525321494e-02 -2.151998604230965367e-02 -1.202085707370127189e-02
-1.806791065784541656e-02 9.302103674094147623e-03 -1.898346812915175166e-02 2.790557634746240745e-03
1.109208500144416576e-02 -2.600698254417560529e-02 -3.315568166171694447e-02 -1.692676572227552398e-02
-1.837579784108771958e-02 -1.342602925783566506e-02 -1.994858381728428776e-02 1.074925797531554005e-02
1.676502696661842998e-02 -4.854598882546189674e-03 -1.391519608420515274e-02 -1.677327378829308879e-02
-1.651365209678582260e-02 4.005184778164132958e-02 2.776215367667869693e-02 -2.024912962011819403e-02
-2.155124457773610266e-02 -1.989866087236515611e-03 -2.145498901328060995e-02 5.666329530237295548e-02
5.296041534989091686e-03 -1.936142030018466256e-02 3.875617394479616284e-02 -1.014032982207947395e-02
3.075596410242969689e-02 7.209031466692772394e-02 -1.223435844457819097e-02 -2.578597838826134428e-02
3.752576838570167300e-02 -1.703695692210119165e-03 3.092120655938532942e-02 -2.398094012238380368e-02
6.681060572072192519e-03 -1.019177136920094984e-02 1.904214228225356229e-02 7.759356112393714583e-04
1.287460979958295927e-02 1.568188431960538393e-02 1.562375201267149349e-02 7.839784691231470315e-03
-2.963450319693228252e-02 -6.546060890385776640e-03 2.991331784161622293e-02 3.976835750168326161e-02
1.124746303595135222e-02 8.364503913613742514e-03 -3.809984352960367471e-02 4.532934228607361088e-02
-2.476411178454873685e-02 -1.517203640578222365e-02 8.560775574884816469e-03 -3.050155146138285207e-03
-3.706999520545310733e-02 -8.003539358041622531e-02 1.053011999499131948e-02 -1.710244405307315835e-02
-6.162738474633562558e-02 5.188355984199472318e-03 -1.090166726702590863e-02 4.317580948177891093e-02
3.547807743230941419e-02 2.963484898953499744e-02 1.961230667673251327e-03 2.261949954110240371e-02
-3.150340553936484267e-02 -2.531915038267823145e-02 -7.746560841292907292e-03 1.548981343823051075e-02
2.073043529854919423e-02 -1.064785533558436879e-02 4.250585043491306170e-02 -4.629754247516590371e-02
-2.037222488829575073e-02 -3.923386479433297810e-03 -5.398312753151857102e-02 -1.070409837477424853e-02
-3.140762515426714224e-02 1.137106328939066838e-02 2.047072547030271555e-02 -3.642328792420596040e-02
1.276527494145184710e-02 4.411089888898664835e-04 3.085237550593525856e-03 -1.071738327328223238e-02
9.395953699686463573e-03 6.031072700394790598e-02 5.403888547337002898e-03 -4.026859051391142724e-02
-1.090178072017378499e-02 2.284301706074387192e-03 -3.107309671230399500e-02 -1.951785688461311896e-02
-1.452522444197530335e-02 -2.523776056942443613e-02 2.027764164899810082e-02 3.639100157087998572e-03
2.010272676531727962e-02 -1.475744473211774120e-02 -2.322192539619893307e-03 2.419937652380692653e-02
5.197028993210199566e-02 -5.081148970118188474e-02 1.312807086987473684e-02 -3.871537338330267863e-02
4.131152823336506352e-02 1.023597096529608660e-02 2.731578690720633251e-02 2.134693853049327364e-02
1.509201720958041823e-02 2.077017123536351734e-02 2.322765568924353360e-02 2.842269456838431019e-02
1.284518884265844346e-02 -1.802655951619761953e-03 -5.421170660633522174e-03 3.396696804883873877e-02
7.892846650179139063e-04 -2.055200813010214095e-02 6.028159461563953672e-03 -4.131954455917882796e-02
6.281157050775586226e-02 -5.065750767388146197e-02 2.193184104080579330e-02 3.935186903032759920e-02
-3.980220242115547341e-02 -7.577424304379358879e-04 1.460106336575410415e-03 2.027073892977558547e-03
1.303632742936682324e-03 -4.415322817015677331e-02 -1.610058541279654710e-03 7.026703908405883270e-02
4.868035957063226310e-02 1.396989653546854351e-02 -1.563467388424297569e-02 7.167794287913953647e-04
-3.713569426523779388e-02 -1.508010556639568026e-02 2.567554509627334794e-02 -7.894994755817038093e-03
2.189322758794256737e-02 2.117537860733091290e-02 -2.645086174235171395e-02 1.987223793956493362e-04
-2.890337249539177977e-02 1.433004028831596360e-02 -2.928544050539174520e-02 4.178158612853062094e-03
-3.621195057370039244e-02 -2.516444415438926982e-02 -4.816705592147378125e-03 4.039447661540711970e-02
5.365589493696341222e-03 -7.499563117567961332e-03 3.433637926771942843e-03 -1.958895028335521857e-02
-2.812472072909607927e-03 -5.888297889042371641e-03 -3.709283362189115356e-03 -3.089900600989196888e-02
4.963006739045378556e-03 -2.263053092485895965e-02 -9.093664183037178730e-03 -1.150354206911931472e-02
-1.057743724938199278e-02 6.702574376732736705e-02 -4.544324307050864528e-03 -2.490802637064377673e-03
2.978739552464646986e-02 -1.596310740583068571e-02 1.887100463277318133e-02 3.917368381909257236e-02
2.416278175264178693e-02 4.055963082027028502e-03 -3.429230467497198370e-02 3.871889577734213134e-02
9.321265421574475435e-03 5.526140722241256516e-04 1.314312339108735482e-02 4.080593651448275946e-03
-3.645579841650710418e-02 2.677272360714600882e-02 -4.230843814381528983e-02 1.855712394429599732e-02
-3.969365130319008755e-02 -4.300144979697041736e-02 4.784128341892354003e-02 3.360942407879922295e-02
-1.339711599151055879e-02 -5.762976590082200500e-03 -8.576726347432205022e-02 -4.300633669575485568e-02
1.239013280948997146e-02 -7.594379915595270668e-03 -2.985689730868781172e-02 -7.262847578018035571e-03
-1.030643561176038288e-02 2.659604768988390808e-02 3.666805009358491130e-02 -1.128229133791065243e-02
-4.854536401360956543e-02 3.184329092060877997e-02 -3.957606091339192778e-02 -1.523775969077038536e-02
1.159635613226615153e-02 3.009954184933121002e-02 -5.629243132174202580e-02 -3.960629321576325523e-02
-5.304544449054906380e-02 -1.223370687333829795e-02 8.976711253147886399e-03 -1.938819195037895515e-02
3.594146966107201330e-02 5.758331379445752463e-02 -2.043439518126187113e-02 -3.595968021272370752e-02
5.215733041133316546e-03 -1.841527223344302522e-02 2.330724221234501889e-02 5.740057441224657303e-03
-1.731568433868484712e-03 1.245441146538846418e-02 3.049898487742339764e-02 -1.642682432029432755e-03
1.599660238369594867e-02 6.370878089012427248e-02 -1.570914489507262840e-02 2.549339455152524123e-02
-1.357465988625570531e-02 -1.825135380610762997e-02 3.610758332779336749e-02 -2.331551313246970486e-02
-5.530610186273309317e-03 5.531580943755282607e-03 -3.498114404444896408e-02 -1.646689068051969450e-03
-9.553754602214607414e-03 2.041303294193411774e-03 -7.881630490593453595e-03 1.238195647208679105e-02
7.487983174770777850e-03 -1.528787180911142171e-02 -3.519971088000277415e-02 -1.920759687710182212e-02
2.462310677765312469e-02 3.983103804340205542e-03 1.763214496413300497e-02 -2.679485769910667017e-03
1.892747416063897273e-03 3.797872833379605656e-03 2.743765513800859590e-02 9.690054596956024571e-03
-5.981323058013940375e-02 2.735998994692432143e-02 -3.568109468633274411e-02 -1.770845197645429941e-02
-6.739431328907185062e-03 -1.222096252647124869e-02 3.767013402621972179e-02 2.332047146760599619e-03
-1.742023625177744521e-03 3.992919912583139941e-02 8.232257885387336133e-03 2.088114834811655857e-02
-2.202934671875775643e-02 -3.463069270184828655e-04 -5.027284916257097197e-02 -2.452060317657191180e-02
-8.996959768845631811e-03 1.241158850351247551e-03 -3.529433161116747597e-02 1.292796692585278934e-02
9.389780164313743516e-03 -3.095800005601740193e-02 -2.348133301898091760e-02 1.061041948007825086e-02
8.957925110074212161e-03 -1.023526878651266625e-02 1.183822484969939727e-02 -1.571030522324377843e-02
-4.079343493541145310e-02 -2.106007799975313441e-03 1.065123777644189258e-02 -1.488721511250033986e-03
9.086682096269364448e-03 -2.896350143912571062e-02 -1.909654942188356366e-02 -3.008315285088127705e-03
-1.107467200843318539e-02 1.889595774298278089e-02 -3.998587932978886483e-04 -1.678666992562428614e-02
2.930422697300569083e-03 2.543296493375208842e-02 -4.550445962913361210e-03 -4.456435367705321310e-02
8.492593286982579731e-03 8.365789721679480276e-03 3.548063449247009643e-02 1.934576723358650760e-02
5.048212233623201872e-02 9.175561135334528787e-03 -8.892290462804906120e-03 2.925686300015813233e-03
-3.901992830065714735e-02 4.154752315470341240e-07 4.405393050055227133e-02 1.460238663897303613e-02
1.424389740452348431e-02 -1.616537777964598480e-02 -1.071082895961160408e-02 1.237678231973672778e-02
4.012913295616617887e-02 -5.691739332334150997e-03 5.376140701498557765e-03 2.306325035740488735e-02
3.333006825100839898e-02 -1.920853911140520218e-04 -1.013933598242877133e-02 -1.089237756404262854e-02
-4.656659091571990761e-02 2.601735469067168339e-03 -2.501631578733917380e-02 1.047652875071879500e-02
3.024010086125917054e-02 2.785091636269713608e-02 8.556418770080947023e-04 -1.353129671044726173e-02
-4.696409171227787505e-02 -1.643655067936533078e-03 -2.024241574645924482e-02 -5.579090413326299493e-03
-3.777591302869465206e-02 2.492209027693741141e-02 -1.743551162783647454e-02 -1.628747223060210067e-02
1.595017242029112686e-02 3.717745540424883394e-02 -1.236947518749613971e-02 7.097665891387168469e-03
8.852880933459974719e-03 3.710237376131372139e-02 -3.561992103025048845e-02 -2.209620377886511826e-03
4.363978575977594393e-02 7.260472516860011494e-02 3.598934608510210350e-03 -2.998544698006067391e-02
2.338415595362080407e-02 -4.762311822725749655e-02 -1.712448961581626052e-03 -4.768537697411526916e-02
2.372794241112588780e-03 1.425160606433434687e-03 4.210662590055231670e-03 2.819031047157222192e-03
3.406227863369890724e-03 -1.652713298130280631e-02 -2.738983657645568948e-02 -2.080371616128341705e-02
6.775238954533141164e-03 5.204421031800777163e-03 -6.493051487149547815e-03 5.441171674188113178e-02
-2.239061389854959602e-02 -5.985383752504025434e-02 4.376663199293490125e-02 -3.004068457060689572e-03
-6.831738829678191127e-03 8.948458614051838303e-03 1.985489272909652173e-02 1.715528478532148127e-02
1.259814936869900134e-02 -1.217213741409039346e-02 1.285165151458156178e-02 1.825919314415066315e-03
3.513488189560150937e-02 -3.476438245500302476e-02 -1.360075921511889364e-02 6.545272328405442146e-03
4.102349526624091830e-02 3.115889597427785526e-02 -5.526348091386616701e-02 -2.891495712300519785e-02
-6.574683932339065763e-03 -2.840096168431702553e-02 -5.787695165046326251e-03 -7.386858792030323757e-03
3.437041526680344877e-02 -2.864652063694845489e-03 -3.075823139301106512e-02 2.089308586458815762e-04
-4.392493508793041124e-02 -1.074865441552808748e-02 -6.087567628133229783e-03 1.198054259404180734e-02
7.335577691420945567e-02 -1.194073373456141368e-02 3.558011069917942082e-02 -2.130696878141443221e-02
-2.711853200872638842e-02 -3.403168797170142562e-02 -2.985668688603519347e-02 -2.522168836856029939e-02
-2.244114340315869760e-02 3.328712659356381637e-02 1.222093943217012098e-02 -8.547262800077645717e-02
4.905837130982339256e-02 -9.225170211616050622e-03 -3.106284913981772339e-02 6.257159744786364164e-02
-1.105583584285614943e-02 6.834590049847999622e-03 4.980232731296002635e-02 -7.353354081442033119e-03
-1.491066226947757034e-02 -4.281341251159357514e-02 2.307875740716714211e-02 2.010219077073738259e-02
-5.281847749145435894e-03 -3.541044898340065666e-02 2.400843127669201327e-02 2.286633302000146833e-03
7.113257896056029289e-03 3.338051587037292774e-03 3.788279730998141137e-02 4.091411169786250690e-03
2.295651323897584389e-02 2.117411707359680151e-02 5.650970540149126767e-03 9.070071693369012242e-03
1.109750517121396891e-02 -1.612238750844246019e-02 2.832907353698256234e-02 6.481787323632039709e-03
5.587758830168009817e-03 -1.751519790430215023e-02 3.064162837574270840e-02 -1.358824958966991896e-02
-3.517978281556351228e-02 1.056594463349943940e-02 8.164136185135542970e-03 2.675626514713459053e-02
2.186449823793567768e-02 1.915309298906811217e-02 6.463781212647883023e-02 3.868670215748166302e-02
3.892058403166975822e-02 5.731704881155846865e-02 -2.558981243805670894e-02 2.346794851182374547e-02
8.952501190366836739e-03 -5.171777600199201769e-03 -1.819735153588370249e-02 -1.461522873789882111e-02
-9.333445512161787916e-02 2.211164090643923455e-02 2.981456961088559468e-02 -1.385427493985554731e-02
-4.445695414214381920e-03 3.446019535334492873e-02 -9.385910144561098248e-03 1.692195550061700512e-02
2.057614566281276008e-02 -3.341650545253355836e-02 4.835756608104414822e-02 1.497725482130756597e-02
-1.191189959273728817e-02 -3.782795396264227589e-02 2.602560453483987804e-02 5.268354919216234472e-02
1.391593783813419374e-02 -1.536116870093755596e-02 1.201264283440887405e-02 -9.689616012563077169e-04
7.442441275282556459e-03 -2.046219085551848754e-02 -1.538128860243014213e-02 -1.478410182654570429e-02
-3.557557527253663292e-03 -1.884866529012678774e-02 1.293155021351692462e-02 4.808830121526535412e-02
3.111823266349044229e-02 8.018777890218539229e-04 1.311615762723213063e-02 1.305453148590901731e-02
1.298759184736309608e-02 2.530774817735555182e-02 3.712716012689644060e-03 1.422747310352395246e-02
-2.610903520831611008e-02 1.756095909733887015e-03 3.087421430279096990e-02 -1.400938830868719148e-02
-2.841119864198697262e-02 1.175956371003578907e-04 -1.043900926708429822e-02 1.476580735205177894e-02
2.104398895337463229e-02 4.216737054526199791e-02 3.846170251746616059e-02 -2.791498629685260774e-02
1.854996062712119601e-02 2.345323010356915525e-02 4.863357483129821315e-03 -2.970174650921844281e-02
-6.467864614619242558e-02 -5.150007587411182391e-02 -1.175050876917940745e-02 8.182936353625429315e-03
3.339371771618092344e-02 -6.416808544227724058e-03 -3.971473679902444778e-03 -3.791627957696158679e-02
-2.712058201731442492e-02 -2.713025665528371808e-02 1.687106598153227666e-02 -2.806433879422791725e-02
1.638371875314827489e-02 -3.292436208850047646e-02 -2.125338809066186149e-02 -1.441735764097292795e-02
-1.940293263042472405e-02 2.411775221851397352e-02 -3.320263979068924405e-03 2.132038942689063604e-02
-2.415785182455225041e-02 -3.793017970512839454e-03 -2.972019065405194505e-02 -8.372681168996590206e-02
2.475285288181736446e-02 2.916314093958312023e-02 -2.646224661404015729e-03 1.915852670416336861e-02
9.430031756029239390e-03 4.377577878247605747e-02 -1.379809763433841735e-02 -1.695841509362764829e-02
2.887083671478766697e-02 -1.785670170383127017e-02 1.815420056723074035e-02 2.806377024404629016e-03
-1.106323647022122193e-02 -3.884210971185288186e-02 3.392668810715797345e-02 -6.915781503564649713e-02
-3.028275819706571781e-02 -1.741471483280323043e-02 4.545213782476306696e-02 -2.801078250464081321e-02
-5.295286379535896204e-02 -1.064243224386358412e-02 -3.779544875345795807e-02 -1.730350354286012970e-02
-9.000151997710127694e-03 -8.110347824032403466e-03 1.535231568222316344e-02 3.268249410465666471e-02
-7.301644051748795716e-03 6.787557084710198196e-02 -1.914005796121732300e-02 -5.264800727663353913e-02
-1.931068768290671034e-02 -7.076524488518845003e-03 -1.035150587630847933e-02 7.629796180487815119e-03
2.261510573778525556e-03 1.588481544184011099e-03 -1.976366485554881952e-02 2.823039500172741176e-03
1.030798415841830892e-02 -2.855558290358212181e-02 3.439829953666168755e-03 3.906227313483538743e-02
1.528161307623660155e-02 -1.631107248629386306e-03 1.869730880393470282e-02 1.315066688990282513e-02
8.992253140317889651e-03 2.054907620547719721e-02 -1.668270382697062751e-02 2.005394365981922906e-03
6.035031080937108740e-04 -1.672546462686824199e-03 -3.113585227813846917e-02 -3.191984978102044290e-02
-5.782761202700325252e-03 5.123531208636495846e-03 -1.636739568389727548e-02 2.163257098135758574e-02
-6.744576304618711549e-02 -2.378401249314523666e-02 4.418502263835148020e-02 -3.202880230088263943e-03
1.833974457727522572e-02 7.951415302947717131e-03 2.031158407096842616e-02 1.490005713635914053e-02
-1.797628392030457822e-02 3.147954746315690788e-03 2.746703685000418445e-03 -2.041691346783101879e-02
1.683832700733178464e-02 1.346494085260373230e-02 1.444610861219849593e-02 -4.000260351305372913e-02
-9.113465423543175639e-03 2.302552959773565555e-03 2.366576517138259048e-02 -2.819891392366325952e-02
1.060905972820195588e-02 -4.699204850840571490e-02 1.098689855477822178e-02 -6.008181946073229765e-03
5.778871577298344884e-05 -3.927967298402205987e-02 1.421941107317060450e-02 2.340045536653705214e-03
-2.659569836314126454e-02 -8.824876603460778471e-03 1.801137256034470585e-02 1.572147659557080260e-02
-3.984449292781955948e-03 3.265474084394667798e-02 3.216687230092531852e-02 4.017962819171131544e-02
-3.758480080021314469e-03 -2.147538887796151749e-02 -1.443576482788882891e-02 -8.626237259045248934e-03
-5.329221922161402666e-04 -2.563556835589910973e-02 1.845073044904845319e-02 -4.273996357556457057e-03
2.571683512985323966e-02 2.814467239861184267e-04 -2.575811168929448888e-03 -3.585702149678147294e-02
4.134989109360992510e-02 2.116780835625693691e-02 2.528600257300237311e-02 -3.107512580355643872e-02
4.442495229566851937e-03 -1.630870251029126888e-02 -8.246962407481527729e-03 2.537968093056312911e-03
4.618288235970448991e-02 -3.171431600357354358e-02 -2.118862871109506579e-02 -1.088968655653602298e-02
1.115223726396761053e-02 7.545138212496721453e-02 2.352901222653136504e-02 -2.444262875005396088e-02
-1.098732887221133027e-02 5.607081223543510830e-03 -7.505907879619563849e-02 1.742212207820576300e-02
-1.626779682791801990e-02 -3.809749674888261717e-02 -8.727090815627377984e-03 3.249822920307914725e-02
3.229415681521730086e-02 9.036896756451086657e-03 8.734004456435564764e-03 -4.535892764302833224e-02
1.041793919744093445e-02 -2.389871857706898917e-02 1.350958120575055862e-02 -2.906904755383307032e-02
-3.140183447843117315e-02 4.121733820035516915e-02 2.944219838979120554e-02 2.004341068770036649e-02
-8.323125025092140833e-03 -1.351275854226149410e-02 -1.921832858726601687e-02 -2.755760341775972261e-02
-9.301409128849965268e-04 2.152485781551841115e-02 1.537890025870083943e-02 2.946001126787471669e-02
1.573151352962006214e-02 7.271634353955939122e-03 2.714028388553460513e-02 -2.468562130947263983e-02
2.054119890880207883e-02 -4.582317642574577909e-02 -3.301071067183395519e-02 1.825143627057646337e-02
-3.340290967147629443e-03 -1.794689678518142373e-02 -2.853227559062608554e-02 -7.941465337777061512e-03
1.488253321618056811e-02 -1.755547600486938309e-02 6.137664547125676502e-03 3.134652729928096709e-02
2.940161755965775905e-02 -2.513760266765092261e-02 3.103351178896259985e-02 -8.460068101555105746e-03
-8.990203952698118742e-03 4.986185271118492163e-02 -6.736595905227985839e-04 6.245240526265057567e-03
2.483762179901520192e-02 6.082627937311383196e-03 3.497455862188332543e-02 -4.057968668801587367e-03
-3.130175258918590359e-02 3.313480806924663097e-03 2.029164232431106968e-02 3.976135240551887870e-03
1.153980549705449672e-02 -5.773633777021536240e-02 -2.862129940914902998e-02 -1.552561404329244957e-02
1.468373932259544289e-02 6.126677058339207588e-02 -1.214498234522460619e-02 1.507902066140429792e-02
1.397052189585008819e-02 -4.393779525885653514e-02 1.210283420235980754e-02 -5.230588220054525200e-02
1.476873595399889882e-02 -3.855985923321880726e-02 -1.392159271948291812e-03 2.751503251082126206e-02
-4.029476035736271472e-02 -2.061592292106557284e-02 3.078348285264400144e-02 -3.762348724532718625e-02
-5.915784064807611681e-02 4.478370586817928545e-02 2.886695411520696225e-02 1.726851188479811569e-03
1.183014617239202398e-02 -1.831340681339074794e-02 -4.227017213766830206e-02 -3.028816441775236679e-02
-2.818659629823044507e-02 -4.346959186831035084e-03 -1.336406162059773466e-02 5.377856195294260233e-02
8.604617496188503648e-03 -4.260104667239454634e-02 3.618107609895090254e-02 1.385220740237228833e-02
-6.583432131593229542e-03 4.006614473039018902e-03 1.221004957145475911e-02 1.419110400223340916e-03
-2.279404209000401513e-02 8.433719138152698594e-03 2.848148171124972525e-02 3.047448343498544363e-02
-6.134766940411166825e-02 2.492747821753143675e-02 7.379085917688849895e-03 6.944919650078248963e-02
3.483132548841118281e-02 -2.700522912848325741e-02 -3.917983278531317337e-02 -7.109940157406993699e-02
2.471340762160979115e-02 2.153303100639661696e-02 -2.757719063854607855e-02 1.552626872968762388e-02
-4.900424522280403400e-03 -6.439616473169350493e-04 3.149458015222722767e-03 2.632000477594557269e-02
-4.880384171666767024e-02 -2.965143450038972006e-02 1.205906148850777876e-02 -2.976824882242653375e-02
-1.004854637218050538e-02 4.222068185554534586e-02 -1.544757132895525908e-02 -2.508600911532489833e-02
2.982852424640440245e-02 8.516247425136265828e-03 1.122272899564862557e-02 -2.389140599474529753e-02
-2.173604134455054716e-03 -4.834615048272733473e-02 5.568729337097908655e-02 -2.777765731515953809e-02
-6.710779196809611713e-02 2.555588630791313584e-02 -1.898906240473040991e-02 1.374239222458842336e-02
-1.159519054850803935e-02 4.071593928098166809e-02 3.402907888225552291e-03 -9.593564276253820772e-03
2.471854617684757921e-02 -2.520159156636239337e-02 -5.253902767223526948e-02 1.114431092051965805e-02
3.516619200863206618e-02 -8.997571109082794227e-03 -5.182009122677780702e-03 2.603616023778547103e-02
3.532901196424654416e-02 2.429525872044440218e-03 -2.406183036594345889e-02 3.262051269142413057e-02
6.140158800469960876e-02 -2.870558671162315098e-02 6.930944949520644700e-04 6.793904541821650656e-02
-4.518807689541362062e-03 6.607233248091631123e-03 -1.638004865243231425e-02 3.644667263812594732e-02
3.701605712467149339e-02 -2.733179729862836999e-02 -1.229988374827069124e-02 1.832555691398172690e-02
-1.705854255887133408e-02 6.570085799378465145e-03 1.947675858042097544e-02 4.533325946734036160e-02
-4.973987131644260623e-03 -1.492829085060097018e-02 1.580891386697784451e-02 -9.280278359362644988e-03
7.592435027213942367e-02 -1.340887779769509621e-03 6.043866868381576885e-03 9.147155419768170440e-03
1.949831909343194281e-02 4.311787629205615646e-02 -4.093691754164585639e-02 -2.410926960789408838e-02
-2.523047569515577890e-02 -5.419016498139569982e-02 -5.392272922065607238e-02 2.836594556208991980e-02
1.548693248427713241e-02 -3.359922039615542699e-02 6.355376651607327378e-03 -2.003256126035421122e-02
4.373052704824077763e-02 2.949987836120238766e-02 -1.441692757780652957e-02 1.093586155374686982e-03
4.182437275392276999e-02 -3.242255182381827833e-02 2.056778139776296865e-02 2.436314881700875692e-02
9.413624004769943765e-03 3.442282366561336127e-02 -2.152063717519674124e-02 2.841769995572371570e-03
2.018743236238118230e-02 -7.849510949803330251e-02 4.221142049857498114e-03 1.752344814802995684e-02
-1.968405764736277236e-02 3.168991900650649368e-02 6.331380364873764877e-02 -2.205146851707648695e-02
1.090671627876869595e-02 2.674524801530312607e-02 -9.612921304456631746e-03 -1.550146435825818479e-02
-3.724259508745362841e-03 2.102400312427543834e-03 -3.626829779880078042e-02 -5.725676374545929370e-02
1.603578377984390263e-02 -3.045658486584886318e-02 -2.677737340695675664e-02 2.231728916291160839e-02
1.510270022219299679e-02 3.796305118294097860e-03 4.762269081207621754e-03 -1.181752633453103662e-02
1.070245405778696458e-02 2.662385194201635774e-02 -4.052955877050930245e-02 3.500749682443474869e-02
-2.071129481595337593e-02 -9.281603705140320515e-03 5.297363507873722489e-03 -2.156035694700119548e-02
-2.541068408327024769e-02 2.113936367043223880e-02 7.308670680381335223e-03 -1.928546440296815406e-02
5.067167636397323233e-02 2.205632106321495783e-02 -1.782310669222337109e-03 5.376257759879474185e-02
3.120653101488745154e-02 1.927265347895790876e-02 -2.441324631699543640e-02 -4.491124691409589288e-03
1.345520723216255682e-02 1.520022847974386061e-02 5.295522233895080810e-02 -1.891374708846190605e-02
1.033339429850717826e-02 -1.351086848540169506e-02 -3.174853995655773503e-02 -1.438898337880477156e-02
-1.914717744108860101e-02 2.817181024918260016e-02 -2.564604653383330615e-02 -2.819413263836125991e-02
2.368107673406450939e-02 3.118207430683450632e-02 4.676206545806202430e-02 -3.147637378033122518e-02
-1.799238688341909739e-02 4.005840111315133595e-02 -1.506840449734971402e-02 -1.844783950810588435e-02
9.349667439927688770e-03 -2.278401696997739249e-03 6.456753439434498310e-03 -3.421504897811843832e-02
-6.265413885551246974e-03 6.084210906882601272e-02 2.313918291037684802e-02 4.540079450137517181e-02
-2.794712987032490353e-02 1.875800319161522942e-02 -2.675736741819303988e-02 7.596847588500871620e-03
4.190724400575053521e-02 -2.830166007161361193e-03 1.060232293167775834e-02 -1.526019228155518553e-03
5.467472490350041084e-03 1.125664871257673651e-02 -3.850526319546888031e-03 -3.585047727659870093e-02
9.253981277371823091e-03 -3.919663647529415124e-02 5.004450641651632782e-04 -3.282940457364613013e-02
-4.911719511413145667e-02 -2.130916008484066981e-02 6.220070747906127941e-03 -2.164301907041507600e-02
1.142024624195351994e-02 2.760968317727416355e-02 -2.425308386046128029e-02 2.924206469590938731e-02
3.251860781577866483e-02 5.644657701967451674e-02 2.343979353168208421e-02 2.870572591796771711e-02
7.247572598860262116e-02 -1.636651295542856282e-03 -1.555572518915582887e-03 -2.317902495607120431e-02
-7.749368776670947576e-03 2.787282639133609186e-02 3.685441899543637212e-02 3.917143352722056437e-02
-2.383430167085673693e-02 3.086673086374585109e-02 6.342554425065050246e-03 -2.824182157553462719e-02
-9.232106099341177985e-03 -6.152092884484432894e-02 -2.901160222550067200e-03 -9.550306646015319523e-04
4.726155711306605743e-03 -1.019112653522004537e-02 1.443477227931142144e-02 3.403065865765676073e-02
-1.143078143576816731e-02 4.155498322604515675e-03 -1.244240062977633281e-02 -5.900927028779730243e-02
-4.285605135848119529e-02 -5.018883976653139463e-03 7.420528299133896666e-02 -3.093972234872663374e-02
2.382362830948435428e-02 1.781388804081775190e-02 2.741495386377487339e-02 1.446203749385629664e-02
-3.623313739874701317e-02 7.176960565718723843e-04 3.260800038071885731e-02 -5.946460797624000469e-03
-1.491579822803621933e-02 3.899776541324956325e-02 1.151304713699083382e-02 1.178961739522920056e-02
6.307056043464668617e-03 3.538154824717525126e-02 2.573809753570099890e-02 -1.002074458346259404e-02
6.623102911404092456e-03 -1.021261874042190751e-02 3.428303381976496866e-02 -1.411730540961659598e-02
1.271822180822369114e-02 1.402222704853679260e-02 2.038720334123346120e-02 9.573346672701947904e-03
-1.329857847820135365e-02 2.271385330320875584e-02 5.569705002110017338e-03 -1.538205502843804917e-02
3.661454914550928835e-02 1.081290910246826553e-02 -4.985274127059966670e-02 -7.050558270441096773e-03
9.346619028626277151e-03 1.422068542190390097e-03 -1.464379433022251981e-03 -2.170273346369728379e-02
-5.463388340451349849e-03 -5.404930869857365455e-02 -3.878097017682168718e-03 1.711897263092425001e-02
-1.375315777650833703e-04 1.869741575890379592e-02 1.395890173964524535e-02 2.172052492148507027e-02
-1.066244594725189627e-02 -3.525429440334940231e-04 1.475669301110347359e-02 9.117321789371432648e-04
-3.065519919384105535e-02 -4.238118416313142733e-02 -5.917838974627491477e-03 2.561681771352073908e-02
-3.394261110847961171e-02 9.400366538356597426e-03 2.099321566568962752e-02 4.271261621112991923e-03
6.152267855919331396e-03 1.302620866946117666e-02 -4.359309408501992717e-05 3.309837729519037042e-02
-2.517365714485299277e-02 1.688984839515844660e-02 3.408267204163957509e-02 8.947665058561397530e-03
1.310852222941834636e-02 3.216372839273930629e-03 -1.148554055425231139e-02 3.003730747075775143e-02
-2.094051994913186457e-02 1.713682140703739684e-02 -4.115468992496826989e-02 1.635517720591735807e-02
1.152707761275281566e-02 1.902271504078143025e-03 2.028849774330423322e-02 9.375678596303976819e-03
6.125498607299777187e-02 -1.049968574711893435e-02 3.856228613425239510e-02 1.290008933119111620e-02
-5.254129163632756394e-02 -4.382016917181181387e-02 -1.191724632018466984e-02 -3.758141112402259981e-02
2.511431831602223882e-03 4.019638707133574296e-02 3.350472305523695057e-03 -9.521914194965766867e-03
1.601472740863418148e-02 -2.732904075127945073e-02 -3.971650189064267894e-02 -6.800133102250843949e-03
-1.240655553350798225e-02 -1.532715052436687576e-02 -1.262921554450961194e-02 8.557029428845369656e-03
5.889314226945099873e-02 -2.653619260543363650e-03 9.421786982202433455e-04 3.334283463787029566e-03
6.620484034065651606e-03 -2.377056049399541102e-03 -3.686731503248521363e-02 1.918996269425852705e-02
1.357281829083440902e-03 -2.249524766810691301e-02 -3.071784834778068865e-02 -2.042041694796608090e-02
-8.336453118387607622e-03 -1.043951967326189022e-02 -3.321621565151557792e-02 9.307073493489176515e-04
-2.196136626721236287e-02 4.267903351879864110e-02 -3.347470377734935738e-03 -2.670123740992206771e-02
-1.184540307686320418e-03 -2.757328591467484227e-02 -4.230763179377364236e-02 2.042246835711378911e-02
-1.785782573081562408e-02 2.086386888222671251e-02 1.176344574161073894e-02 -4.965921974650723721e-03
-4.209885468333151790e-03 3.158704348982712112e-03 -7.022206588882486632e-03 5.175477107912989684e-03
-3.371831874201227514e-02 -7.813976218491495984e-03 9.007799667647533107e-03 1.261730748771068208e-02
-4.952061285341758518e-02 -6.250002423872680173e-03 -1.910369738112870780e-02 -4.926695991042677643e-03
1.541880920105788031e-03 -6.677980885083704965e-02 -4.210763445708980320e-03 -2.575277448923646989e-02
3.966353214145575991e-03 -2.212347374518897070e-02 1.672210039053382419e-02 2.214080838402852913e-02
4.862931444119770324e-02 -4.203110178741478048e-02 4.118638467303599449e-02 2.794921326052627296e-03
1.200965450081615746e-02 -3.060222112422870955e-02 6.155958761665304702e-02 -2.758957806196780591e-02
2.731515496256091760e-02 -9.444718986901124574e-03 6.368437359879705259e-03 2.014615764033939396e-02
1.904972984422152044e-02 9.634985697191112558e-03 -1.948329322969038699e-02 -1.127116790355004068e-02
1.241340638670537962e-02 -3.616970341077772096e-03 -2.568422358559463436e-02 -2.679401519060416181e-02
1.871531812271153006e-02 1.352666244306025174e-02 1.361785833880937643e-02 1.941147893819286999e-02
-5.705647332541295691e-02 -4.368773645530443783e-02 3.448049148453080637e-02 -1.866707879658132535e-02
4.221199030259344120e-02 4.532978826895756735e-03 -5.201416153835815293e-02 -1.230682861236282464e-03
5.094929483237937290e-02 1.409493900786027744e-02 1.938081778129714661e-02 1.106811246804868115e-02
1.347450944569682924e-02 3.848303264282060612e-03 3.601675888156465055e-02 -2.451190144039399471e-02
-5.274126796086928658e-03 2.826851015472627709e-02 -1.388283513439695846e-02 -2.112436075131224247e-03
-2.976677022996920829e-03 -2.924921558133986368e-02 -1.259691523607014800e-02 2.640067623754936699e-02
1.243166056302699891e-02 -2.499455875392520444e-03 1.270216473768322890e-02 2.881846234529167675e-02
1.003314435413090594e-02 2.255326228583021467e-02 -8.645423820349754443e-03 5.781517087868428412e-02
2.001573099924361734e-02 1.501556099452994349e-02 -8.695764249855821026e-02 2.883055580137069279e-02
-1.679749991699785311e-02 2.601755826712706665e-02 -4.847885587649287953e-02 1.254146819863410228e-02
-2.667724724153086591e-02 2.721687798027308883e-02 2.451097672309328693e-02 -3.068356350607144220e-02
2.401434994183804586e-02 2.389834583830946664e-03 -1.017792976016529058e-02 9.651269405220461867e-03
2.329627911700750398e-02 -5.686285191263585823e-03 1.775437494563443519e-02 -3.344783367543729263e-02
2.116962580233636843e-02 1.948272189157253600e-02 1.117331501148133115e-02 -3.154198633379504124e-02
2.123319212766268740e-02 1.687463805327208549e-02 -1.065322969464262658e-02 3.810010951914170191e-02
-1.856455196131278837e-02 2.990481872893573090e-03 -1.122037738885492061e-02 7.032038426497471892e-03
4.111185571705869291e-02 -6.146947305362686353e-03 -1.784996599822126148e-02 2.521695576458776386e-02
9.567382848058728420e-03 2.048566484789664938e-02 5.120091066483992148e-02 -7.856111783669875170e-02
-2.261247699668740910e-02 4.463259231052641537e-06 -5.186684358957361664e-03 5.195435168139063637e-04
-3.443125225695080338e-02 2.022186645434239077e-03 2.525804272407719195e-02 2.953631634969326389e-02
-4.602056771935859186e-03 2.124366461679609835e-03 -2.580137761896807505e-02 -2.390858614990747609e-03
-2.631295620254096163e-02 -1.454181709939339137e-02 3.589533208911063061e-02 -2.971302139291423765e-03
1.501224682413814827e-02 2.700071269087881906e-02 5.386569836137685904e-03 4.050275081717980008e-02
4.465463198749056520e-03 3.640810753708777214e-02 -6.181850913022363461e-03 3.024273552513779759e-02
1.332378925393726092e-02 5.627223969345584303e-02 9.708966423464455639e-03 -1.403637931339294515e-02
7.802822205995137671e-03 -2.249604670205105489e-03 -1.642014650179227445e-02 -2.436950721656277671e-02
-3.159931737265215829e-03 -2.095772404232329120e-03 -5.409008174072541843e-03 -2.911458263481997780e-02
6.484769867873600713e-02 -1.368763355376765179e-03 -3.146283383106607962e-02 -1.522880779565017294e-02
4.565754578614245919e-03 1.660986204251286430e-02 1.749522888478694319e-02 -7.746734769978482794e-03
7.513905966548004023e-02 2.619983644018249874e-02 5.267721717573433521e-02 2.439563954241194890e-02
1.761332466412844286e-02 -9.916528475479288729e-03 -6.094006592607653823e-03 -5.839400105868491203e-02
-4.065366566933508591e-02 -2.656825382783502623e-02 3.808812150273281627e-02 3.057228103851296862e-03
-3.441682206102997937e-02 -4.125559845650141749e-02 1.041414251355060518e-03 -3.643878433949260340e-03
-1.498666537964435559e-02 -3.238143879142441062e-02 2.180111500449300604e-02 -3.944933893721573603e-02
-2.328015355112534809e-02 -1.446573443921053345e-02 6.399776130563598377e-03 3.217101592585269905e-03
-9.478551937286732593e-03 -8.513111478138247600e-04 4.747920794355701968e-02 6.563230783282979902e-03
-2.466227562688154060e-02 3.221864636179003205e-02 -8.552449318916490600e-03 -3.870184482130122061e-02
2.808171787057182553e-02 -1.062285260440910470e-02 -2.990015692572520548e-02 -8.778198802577307641e-03
-5.187753278554658315e-02 -3.171041674998125413e-03 2.656964180612625750e-02 -1.535120665891584642e-02
2.152580303791359201e-02 -1.276098396169652281e-02 5.498174466036791219e-02 -1.228949924207553730e-02
3.781986189100107476e-02 -2.017022058448855737e-02 1.079433771888837438e-03 -3.142533849155505765e-02
1.642060955056313248e-02 -2.983290844509550732e-02 4.590130503628396530e-02 -2.618724085014076039e-02
-2.897895425962402141e-02 -3.132924538292398975e-02 1.691980799300873972e-02 1.713904719518810280e-02
-1.884939969694975764e-02 -1.928745577458818028e-02 3.268687395496814446e-02 8.399450805940443868e-03
1.364735447266651573e-02 9.290567742350834893e-03 3.400515238827620662e-02 -2.547303644581360924e-02
-3.155606435978018653e-02 1.081341385766073325e-02 -4.333181666506351337e-02 7.211581901179923114e-03
-3.496756122536007205e-02 -2.267601603235748498e-02 4.750289116329279096e-03 -1.383186191564321661e-02
1.431803627373787885e-02 -2.380260425341805541e-02 -3.269817492404926418e-02 -5.422076943743922486e-05
9.334976602329216055e-03 9.624730249516167888e-03 -2.148811275053695569e-02 -6.973384669619605430e-03
-2.057473313783726721e-02 2.442516302625771709e-03 -6.071475459649570798e-03 4.612654660777164295e-02
-1.641627688718435077e-02 -2.806942838342077126e-02 3.238685161086655995e-02 -4.336407982609089690e-02
-5.638381388374744813e-02 2.960199101537157318e-02 -4.158429954986430505e-02 -5.446583756925611058e-02
-4.981230319756225523e-03 -8.220199614452005851e-03 1.650250696363431135e-03 6.016874534761025572e-02
-9.788425920673240674e-03 7.288774220967472739e-02 1.476670507357010116e-02 5.304294338327161795e-02
-2.170199486385294627e-02 2.369627085976797401e-02 6.201397081726848365e-03 4.872972571926550978e-02
1.937749906573043093e-02 -6.643937738551422209e-03 -1.113791073156918717e-03 -7.725614893715189099e-03
-5.106612341853355476e-03 9.540291899125271854e-03 2.701146526072068042e-03 -2.902177483336826694e-02
-1.107149875335211586e-02 -1.945409589064077405e-02 -4.036767708202632782e-02 2.845986395611156249e-03
3.591438633826405605e-03 -2.099831385731434213e-02 1.415439545573038763e-02 -4.820995524458803437e-03
-2.055614775328469535e-02 1.052927849411772719e-02 -4.266846265697624846e-02 -1.415413736341072015e-03
-2.702390016062976991e-02 -3.429720077756083507e-02 5.643088743476776768e-03 1.066592030878189649e-03
2.423124807336848874e-02 1.670253343438954721e-02 -7.593344152135017393e-03 4.931027120644451700e-02
1.070773853589219830e-03 6.831135969411414322e-03 -3.084166714500305786e-02 1.076995319546290159e-02
-2.180222912075407624e-02 8.486572724368993126e-03 -1.745785220945476543e-02 3.840818216848744873e-03
-1.884620090110819893e-02 7.510947971584290041e-03 -2.074294414724599939e-02 -1.870127372384919676e-02
-2.428809937436888361e-02 3.337062266265738205e-03 -4.997390228154473257e-02 7.833260530667825530e-03
-2.424780916540675985e-02 1.294856936970679995e-02 -1.499717688861816958e-02 1.604362691479592484e-02
1.083453163391994876e-03 -2.152699598880243245e-02 5.729538505799396803e-02 1.952568174916217980e-02
2.451594595520787886e-02 -1.195946462479882504e-02 -3.582223634798906847e-02 -1.722209962105054198e-02
5.475425453036211060e-02 -3.013568510588992416e-03 -4.019910818339287456e-02 -7.011032688498006378e-03
-2.299177036182397521e-02 1.010506238551850747e-02 -4.777648600509045579e-02 -1.145208866456000861e-02
-2.032732140585368288e-02 2.940138367955837106e-02 -2.933951102066153366e-02 7.266159610099241425e-03
2.669755559394630315e-02 -1.046750152319247430e-02 -3.962075422700334776e-02 5.148713403324346044e-02
-6.512621568130600412e-03 9.017131120641201300e-03 3.430119272687008614e-02 3.743651230443297874e-03
-4.477315680375704848e-02 -2.857785097832390032e-03 -3.800914474230202011e-02 -3.187404977152105690e-02
1.213411723187087302e-02 -5.425489093005224535e-03 1.844676491184010433e-02 2.818684994443814915e-02
1.259236639691449445e-04 4.616285153351901843e-02 1.723088323656160256e-02 4.336094000652362945e-02
-4.061294913340354057e-02 3.251091155925768528e-02 2.227898575205375029e-02 -1.596030685077072173e-02
2.744999553664328670e-02 -2.167943147638666523e-02 -1.913410600666964542e-02 2.823812280790442483e-02
-1.891978705718975334e-02 -4.080460649438901258e-03 3.343594735189762447e-03 -2.620366973992068263e-02
-1.081743227676183750e-02 1.807980529245168874e-02 2.445070549422566700e-02 2.391277541912475296e-02
-1.241701193909784846e-02 -1.262429400328306554e-03 5.093286845749587372e-03 -5.044869025386791717e-02
-7.037652033771737287e-03 2.846027851967142600e-02 -7.995204137040947063e-04 -6.040833773831635889e-02
2.726838850419490909e-02 1.409959273148058551e-02 1.406595018947153983e-02 -3.128256911243459254e-02
-5.073567446532208525e-04 2.836509943922386947e-03 8.905402258609055807e-03 3.286103281044367580e-02
-1.840571053792454739e-02 -9.918517136636715789e-03 -1.390453084564874549e-02 -4.071844920434460058e-02
4.554695450866329612e-03 -2.708078401900730972e-02 -1.853923545086023222e-02 -3.674504020523315130e-03
-8.216339672824151882e-03 -6.902108332942265452e-03 -5.485977250919884217e-03 -1.016387905307311948e-02
4.299180593958447198e-03 2.321339151110538360e-02 -3.938473280455730141e-02 3.595986270603818147e-02
-2.101489654601977446e-03 -1.549743178261271323e-02 -8.890197701066313365e-03 3.385899808720720799e-02
-1.218871139031638649e-02 2.397766760135445693e-02 2.258336982567651918e-02 -8.509698940418541219e-03
8.539875088679827961e-03 7.479623673970943638e-03 -2.804472042322955772e-02 3.879549059792587479e-03
3.308150442220028978e-03 2.493944568865728503e-02 1.053857137541265934e-02 -2.463658414555201792e-02
3.481677670515707229e-02 3.813432444500765989e-02 1.086446444209661702e-02 -1.200359347821071572e-02
-3.807297447828020959e-02 -1.495632886389494307e-02 4.674018521466651727e-02 -2.456022087440528842e-02
7.173795748532724691e-03 4.760912862290554715e-02 -4.692166744456265776e-02 1.134284911509966624e-02
2.452909704744569985e-02 -2.328021494718785986e-02 -3.215940423694752665e-02 -1.205713979648841659e-02
5.021578238578556369e-02 -3.458097670758419895e-02 4.474017854723956467e-02 -1.123158633229937725e-02
2.629483116316667576e-02 -1.208412093124276894e-02 -1.896441975511635805e-02 -8.611531843114736406e-03
5.082323769457587626e-02 -1.167395902655240549e-02 1.578449397213487274e-02 -1.824867288991044098e-02
-7.025445673738425247e-03 3.450042999852478282e-02 -1.922481162570581492e-02 -2.497064805145532765e-02
3.326415011622421702e-02 4.067832589688342494e-04 4.868754605410484382e-02 1.614754403214950507e-02
-1.639965291009863602e-02 7.772005586308171343e-02 -2.489491329420242746e-02 2.592720688509956087e-02
2.072017905372407903e-02 2.454696349884837037e-02 4.382845221211652958e-02 -2.900164942456114059e-02
3.031273790083195349e-02 -1.245136782976083087e-02 1.355090341226687298e-02 1.420928528130340450e-02
1.244313945878455785e-02 3.425372414744739386e-02 -6.185934325462272287e-03 -2.683859778599232207e-02
-5.328493545419509675e-02 -1.529269001498442977e-02 -1.523488820440089403e-02 -8.518174105262104473e-03
7.495014378059049708e-03 9.350537173088776730e-03 7.548651777544398978e-02 8.283200963255922186e-03
-1.049665955857820125e-02 -4.882669797476747037e-03 -4.588551974433597680e-04 -2.400085637274211245e-02
1.089424979525317576e-02 -8.531114490809021261e-03 4.077959784086236661e-02 2.350189458117330626e-02
2.315771543101056637e-02 2.285732019997394754e-02 -2.173210388306056132e-02 1.902427120375714889e-02
3.723490115337461936e-02 4.431397403211220082e-02 -2.296389608043253316e-02 -3.777242708467302718e-03
-6.766312244261351401e-04 -2.121552858713256565e-02 -1.612007150693585411e-02 -3.613157116613029129e-02
-2.230319961987575067e-02 -2.358120415310658788e-02 1.276810767049090661e-02 9.685698988455948566e-03
-3.387405154530234112e-03 -7.726994363417115375e-02 4.729615931498678920e-03 3.639230394822415976e-02
2.580114997031122612e-02 -2.450608491294201021e-03 -2.020826132236874448e-02 -1.740889161636422974e-02
8.244970829277801713e-03 -2.764773674512330942e-02 2.077080573189681381e-02 2.980498914925866841e-02
1.495992208708841510e-02 9.684273448452953778e-03 -1.642213869182872210e-02 1.020190500172748690e-02
4.845987459467411009e-04 7.710083669378624965e-03 -3.481175838331398986e-02 1.634981792040393622e-02
-1.129503189164325627e-02 2.720017251866571270e-02 3.679529550247370023e-02 -2.434404376913787416e-02
-4.725527257781286794e-02 1.584315068203167101e-02 2.876057059283056855e-02 -3.753137222730295458e-02
1.784917864973741691e-02 -6.650529244747297591e-03 7.116705896370790173e-03 5.342724492212783116e-02
1.605548543437696971e-02 -2.668587043227907060e-02 -4.270321647290755557e-02 -1.363212487557331418e-02
-1.199185763356267267e-02 1.440213629449201666e-04 2.826884695142141066e-02 2.591156543466203652e-02
-1.524944061246922980e-03 3.990129724601484094e-03 2.878315275828319600e-02 5.430677461164308550e-02
-2.452980223378294078e-02 1.485820990677965033e-02 -1.321515786209148495e-02 -3.283792067044821739e-02
3.331826105329577237e-02 2.387417785198541267e-02 2.345694941055793264e-02 1.723038783916102518e-02
-9.782362621781682741e-03 2.711553564182951279e-02 -1.115581724480676530e-02 2.086735008554023527e-03
5.109054751787776849e-02 -4.013075456202089275e-02 1.223074057585059153e-02 -1.234195738427448438e-02
1.879207148439568029e-02 2.981879248145731173e-02 3.404433306527285957e-02 1.369056157441384501e-02
1.136951190184137296e-02 -4.495375114607346595e-02 7.424657078642991730e-03 1.052254997125822225e-02
1.121822197640931149e-02 -2.803271180036647631e-02 3.672794677060042118e-02 3.565287421822996988e-02
-2.853493087008246096e-02 -3.029456379701521082e-02 -1.430236249066926639e-02 1.141369062326201729e-02
3.176827083439472815e-02 -1.673648097032882573e-02 -1.986012049803824800e-03 -3.267932714686404110e-03
-3.164283907734871670e-02 -4.144663137903527306e-02 -4.446825912292250160e-03 -2.970563896005369575e-02
-2.058887848471007212e-02 3.181473163522900022e-02 -8.551522669709556157e-02 2.059384001022822493e-03
-1.778256820674675373e-02 3.031483001671652841e-02 2.029553706782470657e-02 -3.127787790435678644e-02
-1.867137667674919829e-02 3.514663809060920591e-03 -2.688425346922556497e-02 2.483130077379950922e-04
-1.680367058094572527e-02 -5.417850594258716984e-03 3.056669030922743585e-02 2.428504570950272903e-03
1.766924028073433087e-02 -1.174089202996781052e-02 4.434981418322371700e-03 -1.214435535282354546e-02
-3.107672426768190097e-02 3.562766965051226975e-02 -8.767565072242725424e-03 2.070176232884330531e-02
-6.842540517711114684e-03 1.513624477826278417e-02 3.648375256359209784e-02 -1.248092814550561154e-02
1.185596448553049784e-02 -3.501949850683711007e-02 -7.098865451734079172e-03 2.820267265376901270e-02
-2.311202843345543101e-02 -1.756616551576799939e-02 1.235930867109143703e-03 -5.050641285143595699e-02
-2.739361370863157771e-02 -3.317091952703540153e-02 2.927036317380086322e-02 1.334174388280481155e-03
-5.220424149833451100e-02 4.881349194421032330e-03 -2.137602144689299336e-02 -3.679866115039653190e-02
3.606903186632527680e-02 -2.579457552135416831e-02 3.683059705767159370e-03 -1.809627424439454180e-02
-2.147569358046785490e-02 3.931367559079212981e-02 2.090848179339632740e-02 -1.897562207323810757e-02
1.494621037272781013e-02 -9.236960517526740869e-03 -1.325943721672810834e-02 -1.362388645949718161e-03
-3.054447898313340792e-02 -3.120456411875043370e-02 4.722808238509050571e-02 -2.188712665528943710e-02
-1.081044215659874262e-03 -2.369347467681708758e-02 -1.195058247266030278e-02 5.036464031823372628e-02
1.017226355096456300e-02 1.808348102175108899e-02 1.220780416588453966e-02 -6.218473011813428243e-03
4.606945589014210807e-02 -4.360108698734113664e-02 3.069159694245011602e-02 1.465674247337265222e-02
-4.564873178745026960e-02 1.912167281504994348e-02 -3.727651275402039249e-02 2.635255428485742610e-02
6.095264801340422728e-02 1.407583122248023955e-02 4.176282370037711321e-03 -3.437169146503457617e-02
8.846665737611834543e-03 1.602883061967229003e-02 7.091217321933628547e-04 -3.082796016178643295e-02
2.999203892562202906e-02 2.742910499522270562e-02 -8.591118465433802628e-03 -3.322037646155295842e-02
-4.493133727969299274e-02 2.203030409115804694e-02 -6.430352975732042675e-02 -1.205524624234450941e-02
1.830278900713249932e-02 -8.910387840274812052e-03 3.753580235188311992e-02 -3.341050926128080051e-02
2.756090668797264200e-03 -9.751531082612950249e-03 1.526511401358804712e-02 2.951350448988563149e-02
1.825372668534240225e-02 -2.626395322352876455e-02 1.854785879314324593e-02 2.672622891282668695e-02
3.673541354527127406e-02 -3.165407527340149962e-02 1.033015655240956086e-02 1.991555145864303683e-02
-3.923357558790636218e-02 -1.038938511064681908e-02 7.375024246217745834e-03 -4.667468424529447324e-02
1.885186763945004285e-02 6.404941306550208935e-02 3.436431144047691344e-02 7.000288337347859192e-03
4.612887182306610323e-02 -5.709910971253515793e-02 3.929810112028892834e-03 -1.503251956971975341e-02
5.595250941754241480e-02 -2.199180310816817308e-02 -4.808400922769458241e-02 2.582662480313613687e-02
5.902092318714139557e-03 -3.520757437274875390e-02 4.963739943288739825e-02 -1.007056761177767962e-02
-1.631968299388305774e-02 -9.141056594323636320e-02 -1.925283829584889181e-02 2.394670221370339205e-02
4.642916618177236887e-02 3.110198910532262651e-03 6.474787813672702730e-02 3.695027623279904805e-02
-2.774466575997334983e-02 -5.728867102434682598e-03 -4.396025658398321667e-04 2.969470302541656406e-02
-1.561520184177526450e-02 1.574313016685170361e-02 5.181870655597803355e-03 -6.608499381485784252e-03
-1.802669568191503022e-02 4.719887084178735204e-02 -1.455645639093484933e-02 -2.756316219160908840e-02
1.403182385561489547e-02 -2.461545573080951496e-02 7.179304162349076091e-02 -7.452853863376065688e-03
-4.799985514489294586e-03 -8.546542044985319794e-04 9.807611606727113795e-03 -4.235682401483183146e-02
-1.796297910608084594e-02 6.976056732430009448e-03 1.068126790017038912e-02 4.082479821204377905e-03
2.462155541697864936e-02 -1.181614261221426536e-02 -2.923148525154715613e-02 1.334906475665470840e-02
6.721856710514005281e-03 1.690958467264714118e-02 -9.732491200081464650e-03 -5.877017704099157455e-03
1.831693051693100358e-02 -2.884971683868975748e-02 2.586965633501827830e-02 2.290350138344021333e-02
-3.435064764299769133e-03 1.581675751236228181e-02 1.557763138193341175e-02 2.362029791956896801e-02
-2.204109998625625524e-02 -5.980574928910929733e-03 -3.074267803199629348e-02 5.765923292794849185e-03
-2.125588373965600283e-02 -1.110736386625974653e-02 -8.306051489412493230e-03 -1.541318288121897376e-02
-3.904963347303482858e-03 3.091790722403662747e-02 -8.377945126081668900e-03 -6.158198890624270311e-02
7.620650170765866371e-03 7.753698532309439423e-03 -5.622076424086247526e-02 -6.396116260478355332e-03
-3.026588498265237251e-02 -2.554205019563968518e-02 1.846113376664943601e-02 -1.033061322915054467e-02
4.620855458582822511e-02 3.558470720237504742e-02 2.066344058288031166e-02 -3.091461328249953122e-02
-4.119653875580463198e-02 3.068570171310581671e-02 -3.807204419195941297e-02 3.368440337281336516e-02
1.560851528969125525e-02 -5.136156788159356584e-02 4.175276230508347813e-02 -3.624715400982867711e-03
-4.164153446801851892e-03 -2.343187840263935735e-03 6.660471638408133055e-02 3.782886732501817423e-02
-1.571413608613370788e-02 1.569103392090277424e-02 2.346359705278227778e-02 -5.288759005401419628e-04
5.012571987732405282e-02 5.854937904150840644e-02 1.450059381173760334e-02 -1.206759034027292399e-02
2.747029651957686933e-02 -7.715733067664585533e-03 -5.250946031272112069e-02 -5.489908796816992537e-02
-4.415509455087078886e-03 -3.194120530565799920e-02 -1.418149300709638239e-02 5.128348705627652250e-03
2.362346231039112385e-02 4.896845573193522178e-02 2.384125822553331830e-02 -2.482546334082563755e-02
1.024450082111084091e-02 -1.446360623424019359e-02 3.475364110920864391e-02 2.086047702122795916e-02
3.632609973161332606e-02 -1.215975318377399313e-02 -2.771120818216872214e-02 3.906288158297877705e-02
2.040861905215386740e-02 5.606219253183234753e-03 -4.628014883055986406e-02 -1.341683544871627616e-02
5.451321160635263195e-03 3.890257769747079014e-02 6.308359148929586040e-03 1.280877205867108314e-02
-2.662512242596893480e-02 -1.895715023871384283e-02 -3.244467786959132072e-02 1.697979710738565726e-02
1.930006526817346774e-02 1.798642776906931445e-02 4.247196572925881390e-04 9.019731430010165946e-03
1.340101608871655664e-02 2.724957847465849653e-02 3.733828505046733748e-02 6.911473912112129324e-03
-4.590855518866765461e-02 1.364971144100466521e-02 -4.173760641648977671e-02 8.499555072391709598e-03
-1.943749070746184776e-02 -2.288037348768832534e-03 -1.855685057167331259e-02 5.232961464187303735e-02
-9.696213814101926898e-03 -1.472654645302601956e-02 -1.284675630522426684e-02 1.003707007494640535e-02
8.652787353929724395e-03 2.202759705851605257e-02 3.274116014492323840e-02 -4.567364918101903502e-03
2.470635926077232106e-02 1.838042338232679512e-02 -3.029533042529776454e-02 -3.676930506145367067e-02
1.423381401317412587e-02 7.725883687961205594e-03 -1.888355885817158061e-02 -5.032674647181458599e-02
4.980102934540397985e-02 -2.068316206005327285e-02 -3.736197012160639291e-02 3.642238566081810666e-03
-3.172891189720004890e-02 -2.013114639703168438e-02 3.376165730919090252e-02 1.386805000547665194e-02
-1.625839175833676889e-02 -8.360154593520836494e-03 1.155288370822545908e-02 -7.599078776096633136e-04
-1.409819127038102957e-02 3.550579826732778912e-03 -5.023975982106380217e-02 2.671008938776945132e-02
1.675889812867337528e-02 -2.259004503494801974e-02 -2.927448196887320192e-02 1.061233924553205664e-02
-2.189468475638645106e-02 3.783296584739438001e-02 -9.066136754598445174e-03 2.772103640155453713e-02
-1.442880937592698649e-02 -3.498119216595077519e-02 2.604340321611312709e-02 8.600810819606945212e-03
4.309479745318657573e-02 -1.648181429641088977e-02 -2.373465953839259263e-02 -6.063639344522194635e-02
-2.481459630442965289e-02 4.481372572648888164e-02 -4.068136009016209975e-02 1.253232867128105908e-02
-7.901227135057690976e-02 -1.773528662496992939e-02 1.689544166638925343e-02 -2.236215727724601143e-02
3.497133280517953496e-02 2.694742436532832422e-02 -8.339351928325661190e-03 -3.574358816913900810e-02
1.255344313928493001e-02 -2.345922339841645561e-04 -3.139130122602151046e-02 -1.182118207939661207e-02
-3.189454543229737482e-02 9.334962789318968293e-03 -1.344528220668986078e-02 2.161124065383312337e-02
-1.248149319007723322e-02 1.845474812381493052e-02 -2.413616210690699287e-02 -2.066033135824983311e-02
1.116223606244987586e-02 -1.182790717421524501e-02 -5.705028838955337502e-03 3.028462990324441023e-02
4.937707050320670754e-02 3.037196712183413971e-02 3.665587170802732733e-03 3.130896187739470003e-03
2.650686152511408031e-02 -1.922816968378553495e-02 -5.635832805816547511e-03 -3.268080626783675946e-02
-4.488839161451067816e-02 -1.949162463019015216e-03 9.530718417375409063e-03 -4.317854841741576057e-03
-1.363098883311467981e-02 -1.018593521036964371e-02 1.915271625715545684e-02 -2.846061673952474114e-02
-8.659218210867028476e-03 -3.591321750332766849e-02 2.824229295564293848e-02 6.179824430022808068e-02
3.130286249455740705e-03 -1.542114139860806081e-02 2.353113206708027511e-02 -1.162160716309791966e-02
3.163982151985580971e-02 -3.134650553151043309e-03 1.147025732265203463e-02 2.908131570091582532e-02
-3.953110109611720352e-02 3.970157066145194556e-03 -5.639278113103314213e-03 -2.590910204209573645e-02
3.752117202481611291e-02 5.084727937700589395e-02 -2.166358716400825987e-02 1.122924154427809920e-02
3.115648103830430740e-03 -4.702708934919147196e-03 -3.505041220412237479e-02 -4.528118593453964169e-03
-1.888602322271923373e-02 4.158894527771460001e-03 2.108010091342801123e-02 2.124839333317519660e-02
4.301500888270544387e-02 4.959167754548841379e-03 -3.969544386706978269e-03 5.261642273969930478e-03
-1.700657401179188691e-02 -2.168114253166588193e-02 -1.963999054166592692e-02 1.555219996490777440e-02
4.609724334972161580e-02 -4.930914505816866300e-02 -4.429391911009366656e-04 2.411341137016584021e-02
-6.842292372562246150e-02 -2.085990734315799899e-02 -2.240295916877006049e-02 5.367759585227228902e-02
3.239593609721567319e-02 -3.027381102450658890e-02 -2.270392437897691268e-02 -5.490947676024548335e-03
-3.049077051067899946e-02 -4.336850346754257679e-02 7.942312622350717818e-03 2.499029785232478179e-02
-3.522102390817957035e-02 2.024889927173571802e-02 -3.985637792427211730e-03 -3.604979682783160215e-03
-1.504762499731400645e-02 2.318389476507010105e-02 -2.698814769295967975e-02 7.495791819442927488e-03
1.021180796028250438e-02 3.208282008696961701e-02 3.377665114381035033e-02 1.799152841297962588e-02
4.564880886523494524e-02 -4.717265397198789484e-02 2.532012127582921809e-02 -2.750569965584549401e-02
4.552240583917023520e-02 1.128934495713519552e-02 1.104364427045597015e-02 1.857968881693062430e-02
-1.394654728187134929e-02 4.217083309273545605e-02 5.809314995259327180e-02 2.122985277952475422e-02
8.141047629540451233e-03 2.912708627139790410e-02 -1.582088423818391390e-02 -1.486469556866465078e-02
3.177816773320799731e-02 1.566130662073347488e-02 -1.875441463372600967e-02 2.410150307252877100e-02
1.521138203127650641e-02 -4.057646245926199713e-02 -3.473819242412815728e-02 2.468608076584007452e-02
-1.716442917431974108e-02 2.400974408599389903e-02 3.121861209054919636e-02 4.512174184610480421e-03
1.925317748507995169e-02 2.781808870381019538e-02 -8.362689556735292823e-03 3.100932527649494577e-02
1.895733065367826917e-02 -3.201441951401402808e-02 2.545261726483996970e-02 -1.215875718869263017e-02
-3.535831660483186589e-02 -1.372397644588616190e-02 -2.222303017353570529e-03 2.450117793888772350e-02
-1.005260491485478018e-02 -2.739228822540612680e-03 -2.273258772358723728e-02 2.636693217255234312e-02
2.637271768621370430e-02 2.216680035092871703e-03 8.076256295634872892e-03 -2.836655623111446114e-03
1.997334360538596809e-02 8.638764160584223167e-03 3.659895584574236749e-02 -2.511695758192348735e-02
-7.027455749133793006e-02 2.982372161531460578e-03 -2.889103074062117707e-02 -1.724943461609047130e-02
-2.563231116675767501e-02 2.168062896357389035e-03 5.935529563723408730e-02 8.014499533945026446e-04
4.081885043031786842e-02 1.780291795533566271e-02 -2.599179386519836696e-02 9.309182549316627822e-04
3.085998941788594546e-03 -1.973595752178212287e-02 2.275876240831277431e-02 5.679909110028251613e-03
-1.844561029534224879e-03 -3.195834781163003208e-02 -2.857205070198068700e-02 2.051268571994510626e-02
1.558898976063497963e-02 -2.756083693537955247e-03 6.061848877359342185e-03 1.728954987023820916e-02
2.686262139558059231e-02 1.458633138046753520e-02 4.030136898555497504e-02 -3.360796467131427212e-02
2.263867770405927557e-02 -1.675846827494488489e-02 3.907316503893475124e-02 1.140712084439356351e-02
3.844658588228215199e-04 3.058162606366527161e-02 -1.105565644877310252e-02 -2.000215995490030665e-02
-3.411776309990806073e-03 2.286113691540995335e-02 -1.928633839081287174e-02 -3.725438869489464122e-02
-3.502980034463031109e-03 -1.813376569432053817e-02 7.813620186880596355e-03 2.289062426732784220e-03
5.374921429509455298e-03 8.255279118339625341e-03 5.029159660314041352e-02 -6.366139147475369242e-02
4.262764482261977711e-02 2.425412693317127028e-02 -1.897998837658144630e-02 -1.221165390111950654e-02
-1.892837054695902660e-02 4.380255378440714442e-02 2.366810200186855034e-02 -2.801594382098549635e-02
2.128555087685792338e-02 3.934271641809319181e-02 -3.648660469834726777e-02 -6.363982260891473154e-03
-1.205394523798145739e-02 -3.465428032624878751e-02 -1.352133200780751901e-02 -2.753836797303580233e-02
-1.086123130212658834e-02 1.820993824571304209e-02 -2.726802941858842352e-02 -2.756768720018661425e-02
-3.248248247285920320e-02 1.510799974204141138e-03 9.081103966847504927e-03 1.706230668398208208e-02
-2.391188659128555202e-02 4.911428361768363504e-02 2.599680156067628051e-04 5.976155647572455433e-04
-1.745033101556738020e-02 1.333764137956925701e-02 4.199854335456799231e-02 2.061373344604116101e-02
8.380752524778030052e-03 -2.132102836877318788e-02 9.670459732563424157e-03 1.291173123022727395e-02
-4.699647852526719731e-03 8.016090459912864757e-03 5.293115419449435227e-02 2.182648110775767605e-02
-4.379648480144825162e-02 1.007266326724975567e-03 -1.595245456802401804e-02 -9.745402047375201215e-03
1.534840399519081348e-02 -2.709998740158839001e-02 1.483925102572117467e-02 -1.530707562690576846e-02
-3.994491831825647266e-02 7.602984277027184656e-02 -2.560100168886868255e-02 -2.638396807476069139e-02
-8.930277461595498290e-03 6.687125249216173233e-03 -2.004229152802005590e-03 1.940268437574475466e-02
2.766469652400151830e-02 5.365791937230660752e-02 -6.648701212981468316e-03 2.220679064926348381e-02
-2.413514858011653330e-02 -3.214652389908823765e-02 2.761890442504186249e-02 2.408801660392852553e-02
2.250652558287500465e-02 -1.931066112171866576e-03 4.152048408521150091e-02 -3.773675590406548076e-03
2.812993503768317083e-02 6.601625575652444837e-03 -1.122590810785515161e-02 -2.077431265521623507e-02
3.383177261330706873e-03 -3.115754545577587714e-02 4.293002319628870869e-03 -4.076106154191330710e-02
5.827499261468822161e-02 -2.546726924282195423e-02 5.442322758000887883e-02 -7.588893897238897963e-03
8.797731741272619282e-03 -5.196962636819719289e-02 2.528603179784659743e-03 -7.643664280638209820e-04
-3.717501108288800288e-02 -1.611457728588544178e-02 1.859977423172495467e-02 2.234269995293639358e-02
-5.389542109984377105e-02 -4.126182942068642328e-04 -1.027537176877896946e-02 1.363151455481550860e-02
4.425375261994970305e-02 1.489471964459655913e-02 2.925212959716069760e-02 2.485170949157649092e-02
3.309914656140263561e-02 1.954248386127625109e-02 2.022454316511203276e-02 3.372145678000521701e-02
-2.808751179458990332e-02 1.068009794969472688e-02 -1.761942889559601003e-02 1.189943214405532294e-02
-6.781799407880787986e-03 1.953470613825430621e-02 -2.214342478684891771e-02 -3.200402887515323147e-03
-2.548794736451527251e-02 -1.832497587996518434e-02 -3.379586306485837105e-02 1.256710320922691491e-02
4.537610455395057335e-02 1.574862984218721720e-03 -1.873800226621762099e-02 -3.120365827638970149e-02
-3.810820403289014863e-02 1.199426157386001331e-03 1.899919288292325342e-02 2.130134366174700478e-02
-1.880490462193021295e-02 -5.045842053709671815e-02 -1.500881422148548153e-02 1.810866408671144012e-02
-1.904673439841477259e-02 -3.288408946204508104e-02 -5.882366722573642397e-03 -1.683169357425758073e-02
5.803271876441689486e-02 8.571094480182865627e-02 1.681067615745274885e-02 -3.885987401157036227e-04
3.336834072935082021e-04 3.352838114390369745e-02 -2.585014752453762554e-02 -5.474957184131600679e-02
-2.431069484001267128e-03 -5.329430035916783714e-02 -1.550761644380481159e-04 2.786565839707620673e-02
2.748179669039169104e-02 -2.774705688418737173e-02 -1.507769897356032313e-02 1.758649313912481749e-02
-5.268033333717759246e-03 -6.487587959720112797e-03 6.291052221567558500e-02 -1.073109390717169771e-02
8.975641599768624870e-03 3.592693533804152545e-02 -4.746136874325632832e-02 2.177707355978987860e-02
5.748784144632754917e-02 -6.684118322377540639e-03 -9.246029482241055475e-03 2.415891631479889778e-02
2.280876410633119345e-03 -1.909407490548178585e-02 -5.590838700097040120e-03 -1.395530657163397345e-02
5.356997007874809806e-03 -1.625500138386402546e-02 4.501894308981955334e-02 1.299925858025190346e-02
-2.883591628821913222e-02 2.717063051109630881e-02 -3.181432176885383716e-04 -1.767727830486884311e-03
5.019071270375876151e-03 -1.031749117180793575e-02 3.540420747814147784e-02 -1.597397083740661680e-02
-1.105498306369921344e-02 1.595942984595944206e-02 -1.791370176665522951e-03 -5.345203094511258822e-03
-5.014953682232533433e-04 2.368019070860385294e-02 1.171542147207726980e-02 -1.435790221535776338e-02
-1.464643388035114652e-02 7.582415051244076158e-03 -3.741922054400407399e-02 -4.785416801254968600e-02
5.588118036183092191e-02 -3.415715936322057805e-02 1.464006799964341632e-02 -1.907527633233873504e-02
-3.595322850471966564e-02 3.287123613438031750e-02 3.144303437326904233e-02 -9.165001728385441249e-03
1.949586813509275943e-02 -4.000392281490424556e-02 2.889226025809280354e-02 -1.475145273307411830e-03
-2.783301127916752368e-02 8.238523216606593105e-03 -2.471682782721697919e-02 -1.514398604210791081e-02
3.023030778716041811e-02 2.813475983732446201e-02 -2.913130387561781165e-02 -7.071681912342504296e-03
9.474608338054362963e-03 -2.944690966474753507e-02 -4.113519711170583043e-02 3.481988228678712521e-02
1.146559452552759970e-02 2.914449785446943456e-02 2.435129225536428361e-03 -5.952224963445512662e-02
2.716789216647368804e-02 -2.342705466344809431e-02 1.514863632236993114e-02 -2.633606984142853116e-02
3.287642099074279678e-02 2.432842404496458194e-02 6.607226360192570112e-03 1.637833868094033807e-02
-2.753687823403608639e-02 8.336090062831288776e-04 -4.149084738838959563e-03 -2.552203365026105633e-02
6.892193794817273733e-02 -4.763480825815059883e-02 1.888217891044408070e-02 -4.150557191234111910e-03
-2.170149951682608797e-02 2.708790633820154156e-02 1.721108047669451038e-02 3.032546033006345079e-02
1.961980552149349827e-02 5.229404098236441548e-03 4.196869579192514382e-02 3.791936623020759900e-02
-6.535419881681052597e-03 -2.707176457330199432e-02 -7.135090216014663804e-03 -7.277801503264129390e-02
5.023946535554548246e-03 3.482654875436243247e-02 3.196126862681122893e-02 4.753340840009586538e-02
1.905133624743226813e-03 3.921993313342750365e-02 -6.235785178266619461e-02 1.193062317695161353e-03
-9.200897647918466690e-03 1.635218942788691648e-02 -2.971325216425453608e-02 -4.757964550809975351e-02
3.979240487150469130e-02 5.944545571776880047e-04 -3.911312920816084615e-02 1.888216131969771422e-02
1.671128643544591771e-02 -7.755051870290369069e-03 -1.671764615766561241e-02 1.047953744985649985e-02
-1.869758941848799700e-03 -4.052569215580736905e-02 -2.170946468825808023e-02 1.163584955303431298e-02
-3.182149765288739933e-03 -1.777153560538794266e-02 1.278167970909726767e-02 2.704944783682244891e-02
-4.118148503630077867e-02 2.454877480125492242e-02 -3.260176408611514809e-02 1.739259055634112192e-02
-4.825493148482150330e-03 3.025673652697985494e-02 -1.285520058101386268e-02 1.627618542805482973e-02
2.749425022874981209e-02 -1.704296088176042315e-03 -3.730026217057670450e-03 1.154867960325704941e-02
-4.250312800196005825e-02 2.706915040475945528e-02 7.922845927830105689e-03 -7.358718521573782631e-03
2.386524531046070596e-02 3.528236847915673657e-02 2.038666790233576581e-02 1.693685148132003174e-02
1.220736464124301361e-02 -5.839820757229469139e-02 -1.562631386952344562e-02 -2.041464307890349713e-03
3.167600324228146691e-02 1.123799013157361637e-02 -3.224657318388212540e-02 2.107354112719490857e-02
6.780805599449766727e-03 -2.458728147981917994e-02 1.171371372067697876e-03 -1.088374508824262524e-02
1.868290279192752479e-02 1.579880215066913410e-02 -3.913874028338051002e-03 4.113375334071708508e-03
5.519239495991549310e-02 1.067148578878131596e-02 -7.223148403812409274e-03 1.824871961127355613e-02
-1.028601435697117962e-02 -2.936051469160393806e-02 1.158024269993737990e-03 -2.491121371598152556e-02
-3.177631885448066462e-02 3.228594124764967450e-03 -1.556529568959503715e-02 1.656135815764827462e-02
-2.134782415389667801e-02 -1.301065679832552092e-02 1.587991773697983861e-02 1.639972130197548880e-02
-6.431968365226802507e-03 -1.919574163813815007e-03 7.469361266917742999e-03 4.147671075333146662e-02
-2.951035097530164270e-02 2.241224691438071376e-02 2.429022703222516108e-02 -6.282684337779376182e-02
2.561018524380795358e-02 4.028302226065803328e-03 3.462864695857191533e-02 2.745295923768783369e-02
4.958791630150635385e-03 4.450692213954015458e-02 -1.717072180526189526e-02 -1.124841778376769845e-02
-2.968687731626099349e-02 1.129751367263721190e-02 -1.900222880269670372e-02 3.603240692372182332e-03
3.431304570687610054e-03 2.969775578169316088e-02 1.745907967878743139e-02 2.707737341207635748e-02
-2.575754022894066742e-02 3.158320519182782060e-02 9.051022157241097460e-03 -2.746728684135742171e-02
-2.894467072602054450e-02 3.901901221789683127e-02 1.740890767263126790e-02 -1.761566964555691395e-02
8.841858741610855374e-03 -5.932470582584763001e-03 -6.345160481132008923e-02 2.258502670519832792e-02
-9.917846453740766441e-03 2.567022622729508118e-03 2.107064859458852510e-02 -8.630964470653319787e-03
5.754001566131716067e-02 1.791335854394042731e-03 -1.181293115828836379e-02 -8.613343787260384354e-03
1.426390608053741162e-02 1.166085432833205253e-02 2.336395955909530836e-02 5.305972756718599359e-02
3.228875525186947898e-02 -5.212165444189832859e-03 1.389377298889677391e-02 4.365883659040824955e-02
1.809567826603964910e-02 -5.021028130419023967e-03 2.139454731919303992e-02 -2.461185597480914852e-03
-1.196995043723179247e-02 -2.126130486480987472e-02 8.961251188930942010e-03 2.160376774517336340e-02
-4.145714426796289626e-02 5.142164206269010662e-02 1.457033602754648563e-02 1.883764080614934791e-02
-3.604562030133021122e-02 1.714850538156303256e-02 2.294698365677262306e-02 2.536500302948128949e-02
2.319040483777501382e-02 -2.216968250139373774e-03 -3.913914282411859631e-03 5.357865895419212238e-02
-4.810974512133950678e-03 -2.473668445828026974e-02 -4.963749797430114935e-02 7.063092256028850012e-03
-3.507371904500888177e-02 9.492397792434823997e-03 1.342245510949080511e-02 -1.108264087659179345e-02
4.978727254006836550e-02 1.475481769056128864e-02 2.184182760070320709e-02 -8.228027430553081639e-03
-4.927344388596388743e-03 -3.252835112470956608e-02 1.437783314156431021e-02 3.896985533124953851e-03
-2.249564899142823121e-02 -5.100902228529188885e-04 2.904284330500131461e-02 2.347507936494022326e-02
-6.674952815816198072e-03 -1.973915404766234810e-02 -1.124024039157400269e-02 -3.375239715695722842e-02
1.376553360715137599e-02 3.447614854039358911e-02 2.158760828512710714e-02 4.298426403608793939e-02
-2.867994729019441441e-02 2.330149572940757446e-02 -1.703818538991861212e-02 2.578871690375193412e-02
2.298721140959284620e-02 7.825527530497490482e-05 -1.178381460903510196e-02 -1.904200553321185041e-02
4.112972893153952342e-02 2.593599181686620167e-02 -8.969646710180294302e-03 1.658373808684513590e-02
1.920735630322206733e-02 2.905173788630407289e-02 3.859407556257168914e-02 -2.193716712535867617e-03
